<?xml version="1.0"?>
<opencv_storage>
    <stage5>
        <maxWeakCount>5</maxWeakCount>
        <stageThreshold>-3.5117915272712708e-01</stageThreshold>
        <weakClassifiers>
            <_>
                <internalNodes>
                    0 -1 38952 -1.0636858642101288e-03
                </internalNodes>
                <leafValues>
                    -9.2916667461395264e-01 6.0630631446838379e-01
                </leafValues>
            </_>
            <_>
                <internalNodes>
                    0 -1 56167 -2.7779242023825645e-02
                </internalNodes>
                <leafValues>
                    5.5516839027404785e-01 -6.8300664424896240e-01
                </leafValues>
            </_>
            <_>
                <internalNodes>
                    0 -1 72590 3.0488786287605762e-03
                </internalNodes>
                <leafValues>
                    -7.6604509353637695e-01 4.6016037464141846e-01
                </leafValues>
            </_>
            <_>
                <internalNodes>
                    0 -1 44662 2.5057722814381123e-04
                </internalNodes>
                <leafValues>
                    -9.5835977792739868e-01 2.4776019155979156e-01
                </leafValues>
            </_>
            <_>
                <internalNodes>
                    0 -1 58228 4.8039248213171959e-05
                </internalNodes>
                <leafValues>
                    -9.2196267843246460e-01 2.4380609393119812e-01
                </leafValues>
            </_>
        </weakClassifiers>
    </stage5>
</opencv_storage>
