<?xml version="1.0"?>
<opencv_storage>
    <stage4>
        <maxWeakCount>15</maxWeakCount>
        <stageThreshold>-7.1669143438339233e-01</stageThreshold>
        <weakClassifiers>
            <_>
                <internalNodes>
                    0 -1 11293 -1.3348105549812317e-01
                </internalNodes>
                <leafValues>
                    7.7845221757888794e-01 -1.5457788482308388e-02
                </leafValues>
            </_>
            <_>
                <internalNodes>
                    0 -1 1701 -4.7811907529830933e-01
                </internalNodes>
                <leafValues>
                    7.6047235727310181e-01 -5.9643801301717758e-02
                </leafValues>
            </_>
            <_>
                <internalNodes>
                    0 -1 29920 1.7096485942602158e-02
                </internalNodes>
                <leafValues>
                    -1.9716234505176544e-01 6.2242722511291504e-01
                </leafValues>
            </_>
            <_>
                <internalNodes>
                    0 -1 2647 -2.7546256780624390e-02
                </internalNodes>
                <leafValues>
                    -8.0072736740112305e-01 1.2370620667934418e-01
                </leafValues>
            </_>
            <_>
                <internalNodes>
                    0 -1 75550 -3.6716327071189880e-02
                </internalNodes>
                <leafValues>
                    4.7372844815254211e-01 -1.8325078487396240e-01
                </leafValues>
            </_>
            <_>
                <internalNodes>
                    0 -1 6885 -6.8181944079697132e-03
                </internalNodes>
                <leafValues>
                    4.4213703274726868e-01 -2.3920951783657074e-01
                </leafValues>
            </_>
            <_>
                <internalNodes>
                    0 -1 22971 -5.9635203331708908e-02
                </internalNodes>
                <leafValues>
                    5.7411301136016846e-01 -1.1950891464948654e-01
                </leafValues>
            </_>
            <_>
                <internalNodes>
                    0 -1 61089 -1.1184237897396088e-02
                </internalNodes>
                <leafValues>
                    4.1448178887367249e-01 -1.7854514718055725e-01
                </leafValues>
            </_>
            <_>
                <internalNodes>
                    0 -1 51524 -1.5608178451657295e-02
                </internalNodes>
                <leafValues>
                    5.7412606477737427e-01 -1.7567861080169678e-01
                </leafValues>
            </_>
            <_>
                <internalNodes>
                    0 -1 161196 6.9658868596889079e-05
                </internalNodes>
                <leafValues>
                    2.6296484470367432e-01 -3.0737730860710144e-01
                </leafValues>
            </_>
            <_>
                <internalNodes>
                    0 -1 32646 1.5471868682652712e-03
                </internalNodes>
                <leafValues>
                    -2.0082278549671173e-01 4.4994717836380005e-01
                </leafValues>
            </_>
            <_>
                <internalNodes>
                    0 -1 146093 6.4946472644805908e-02
                </internalNodes>
                <leafValues>
                    -1.0968505591154099e-01 5.7076758146286011e-01
                </leafValues>
            </_>
            <_>
                <internalNodes>
                    0 -1 109476 -5.3796949796378613e-03
                </internalNodes>
                <leafValues>
                    5.0407546758651733e-01 -2.0100671052932739e-01
                </leafValues>
            </_>
            <_>
                <internalNodes>
                    0 -1 161586 3.2683619065210223e-04
                </internalNodes>
                <leafValues>
                    1.8606497347354889e-01 -4.6449348330497742e-01
                </leafValues>
            </_>
            <_>
                <internalNodes>
                    0 -1 138773 -7.3810369940474629e-04
                </internalNodes>
                <leafValues>
                    3.9054402709007263e-01 -2.3863938450813293e-01
                </leafValues>
            </_>
        </weakClassifiers>
    </stage4>
</opencv_storage>
