<?xml version="1.0"?>
<opencv_storage>
    <stage9>
        <maxWeakCount>30</maxWeakCount>
        <stageThreshold>-7.8693914413452148e-01</stageThreshold>
        <weakClassifiers>
            <_>
                <internalNodes>
                    0 -1 11293 -2.1557042002677917e-01
                </internalNodes>
                <leafValues>
                    7.5868374109268188e-01 8.9192025363445282e-02
                </leafValues>
            </_>
            <_>
                <internalNodes>
                    0 -1 37982 -5.4765092500019819e-05
                </internalNodes>
                <leafValues>
                    -3.3412247896194458e-01 2.4603256583213806e-01
                </leafValues>
            </_>
            <_>
                <internalNodes>
                    0 -1 134925 2.6496212929487228e-02
                </internalNodes>
                <leafValues>
                    -1.6863603889942169e-01 3.8444089889526367e-01
                </leafValues>
            </_>
            <_>
                <internalNodes>
                    0 -1 162157 1.3098180352244526e-04
                </internalNodes>
                <leafValues>
                    1.5269953012466431e-01 -3.7498709559440613e-01
                </leafValues>
            </_>
            <_>
                <internalNodes>
                    0 -1 162157 -6.3049992604646832e-05
                </internalNodes>
                <leafValues>
                    -3.3074405789375305e-01 1.6128408908843994e-01
                </leafValues>
            </_>
            <_>
                <internalNodes>
                    0 -1 60825 7.7984005212783813e-02
                </internalNodes>
                <leafValues>
                    -2.4931685626506805e-01 3.3661457896232605e-01
                </leafValues>
            </_>
            <_>
                <internalNodes>
                    0 -1 162074 1.0410340109956451e-05
                </internalNodes>
                <leafValues>
                    2.6006996631622314e-01 -1.9955909252166748e-01
                </leafValues>
            </_>
            <_>
                <internalNodes>
                    0 -1 131263 -1.7563059227541089e-03
                </internalNodes>
                <leafValues>
                    2.3452229797840118e-01 -2.2514185309410095e-01
                </leafValues>
            </_>
            <_>
                <internalNodes>
                    0 -1 13366 1.3802221044898033e-02
                </internalNodes>
                <leafValues>
                    -8.0502703785896301e-02 4.9846866726875305e-01
                </leafValues>
            </_>
            <_>
                <internalNodes>
                    0 -1 162235 -2.5390917435288429e-03
                </internalNodes>
                <leafValues>
                    -5.0397586822509766e-01 8.4432892501354218e-02
                </leafValues>
            </_>
            <_>
                <internalNodes>
                    0 -1 162320 -2.1848042961210012e-03
                </internalNodes>
                <leafValues>
                    -4.6013358235359192e-01 8.5636407136917114e-02
                </leafValues>
            </_>
            <_>
                <internalNodes>
                    0 -1 114263 8.4903798997402191e-03
                </internalNodes>
                <leafValues>
                    -8.3939030766487122e-02 6.7726439237594604e-01
                </leafValues>
            </_>
            <_>
                <internalNodes>
                    0 -1 97889 -4.4994155177846551e-04
                </internalNodes>
                <leafValues>
                    3.5774371027946472e-01 -1.1990313231945038e-01
                </leafValues>
            </_>
            <_>
                <internalNodes>
                    0 -1 2501 2.6424046605825424e-02
                </internalNodes>
                <leafValues>
                    6.2872275710105896e-02 -7.5019025802612305e-01
                </leafValues>
            </_>
            <_>
                <internalNodes>
                    0 -1 50839 1.2543193064630032e-02
                </internalNodes>
                <leafValues>
                    -1.5041485428810120e-01 3.3248341083526611e-01
                </leafValues>
            </_>
            <_>
                <internalNodes>
                    0 -1 135123 -7.3650493286550045e-03
                </internalNodes>
                <leafValues>
                    3.4554231166839600e-01 -1.3438160717487335e-01
                </leafValues>
            </_>
            <_>
                <internalNodes>
                    0 -1 51524 1.2770602479577065e-02
                </internalNodes>
                <leafValues>
                    -1.1904653906822205e-01 3.6410629749298096e-01
                </leafValues>
            </_>
            <_>
                <internalNodes>
                    0 -1 4081 -2.5406730128452182e-04
                </internalNodes>
                <leafValues>
                    -4.1645041108131409e-01 1.1585660278797150e-01
                </leafValues>
            </_>
            <_>
                <internalNodes>
                    0 -1 98991 1.8239416182041168e-02
                </internalNodes>
                <leafValues>
                    -1.1210498958826065e-01 3.9795202016830444e-01
                </leafValues>
            </_>
            <_>
                <internalNodes>
                    0 -1 89285 -1.5998214948922396e-03
                </internalNodes>
                <leafValues>
                    3.5998201370239258e-01 -1.1471428722143173e-01
                </leafValues>
            </_>
            <_>
                <internalNodes>
                    0 -1 61438 4.2573087848722935e-03
                </internalNodes>
                <leafValues>
                    -7.2575747966766357e-02 5.8800572156906128e-01
                </leafValues>
            </_>
            <_>
                <internalNodes>
                    0 -1 111016 1.5816990344319493e-04
                </internalNodes>
                <leafValues>
                    -1.5726923942565918e-01 2.8564637899398804e-01
                </leafValues>
            </_>
            <_>
                <internalNodes>
                    0 -1 156662 1.5589491464197636e-02
                </internalNodes>
                <leafValues>
                    6.0402892529964447e-02 -7.9581791162490845e-01
                </leafValues>
            </_>
            <_>
                <internalNodes>
                    0 -1 162335 -1.0935192694887519e-03
                </internalNodes>
                <leafValues>
                    -5.2622288465499878e-01 7.2603657841682434e-02
                </leafValues>
            </_>
            <_>
                <internalNodes>
                    0 -1 5049 7.5528596062213182e-04
                </internalNodes>
                <leafValues>
                    1.0782926529645920e-01 -4.2803165316581726e-01
                </leafValues>
            </_>
            <_>
                <internalNodes>
                    0 -1 70828 2.8336443006992340e-02
                </internalNodes>
                <leafValues>
                    4.8366367816925049e-02 -7.4337804317474365e-01
                </leafValues>
            </_>
            <_>
                <internalNodes>
                    0 -1 128077 9.4739440828561783e-03
                </internalNodes>
                <leafValues>
                    3.7226863205432892e-02 -8.2051491737365723e-01
                </leafValues>
            </_>
            <_>
                <internalNodes>
                    0 -1 59308 -5.6863804347813129e-03
                </internalNodes>
                <leafValues>
                    5.1984983682632446e-01 -8.5957020521163940e-02
                </leafValues>
            </_>
            <_>
                <internalNodes>
                    0 -1 51368 -3.5528987646102905e-03
                </internalNodes>
                <leafValues>
                    5.9386950731277466e-01 -6.6007822751998901e-02
                </leafValues>
            </_>
            <_>
                <internalNodes>
                    0 -1 8633 -1.0654984042048454e-02
                </internalNodes>
                <leafValues>
                    -6.1136001348495483e-01 7.2846263647079468e-02
                </leafValues>
            </_>
        </weakClassifiers>
    </stage9>
</opencv_storage>
