<?xml version="1.0"?>
<opencv_storage>
    <stage13>
        <maxWeakCount>33</maxWeakCount>
        <stageThreshold>-5.8967816829681396e-01</stageThreshold>
        <weakClassifiers>
            <_>
                <internalNodes>
                    0 -1 10283 -1.4507347345352173e-01
                </internalNodes>
                <leafValues>
                    6.4031004905700684e-01 1.0175438225269318e-01
                </leafValues>
            </_>
            <_>
                <internalNodes>
                    0 -1 99206 -1.7112281173467636e-02
                </internalNodes>
                <leafValues>
                    4.3092319369316101e-01 -9.2723689973354340e-02
                </leafValues>
            </_>
            <_>
                <internalNodes>
                    0 -1 70691 2.4797312915325165e-02
                </internalNodes>
                <leafValues>
                    -5.0172306597232819e-02 7.6406836509704590e-01
                </leafValues>
            </_>
            <_>
                <internalNodes>
                    0 -1 61150 7.4954032897949219e-02
                </internalNodes>
                <leafValues>
                    -1.1352904886007309e-01 4.6587088704109192e-01
                </leafValues>
            </_>
            <_>
                <internalNodes>
                    0 -1 157600 1.1161712791363243e-05
                </internalNodes>
                <leafValues>
                    1.2030374258756638e-01 -3.2917457818984985e-01
                </leafValues>
            </_>
            <_>
                <internalNodes>
                    0 -1 1069 -1.3552801311016083e-01
                </internalNodes>
                <leafValues>
                    -7.8488594293594360e-01 5.0284359604120255e-02
                </leafValues>
            </_>
            <_>
                <internalNodes>
                    0 -1 151031 1.0752893984317780e-02
                </internalNodes>
                <leafValues>
                    -7.6142266392707825e-02 5.3623610734939575e-01
                </leafValues>
            </_>
            <_>
                <internalNodes>
                    0 -1 147556 -6.8159197689965367e-04
                </internalNodes>
                <leafValues>
                    2.3890258371829987e-01 -1.7877753078937531e-01
                </leafValues>
            </_>
            <_>
                <internalNodes>
                    0 -1 53805 2.6405771495774388e-04
                </internalNodes>
                <leafValues>
                    -1.3284952938556671e-01 2.5925612449645996e-01
                </leafValues>
            </_>
            <_>
                <internalNodes>
                    0 -1 92097 -1.6144586261361837e-03
                </internalNodes>
                <leafValues>
                    3.3449333906173706e-01 -1.2212246656417847e-01
                </leafValues>
            </_>
            <_>
                <internalNodes>
                    0 -1 95189 -1.3623674749396741e-04
                </internalNodes>
                <leafValues>
                    2.3745438456535339e-01 -1.5716657042503357e-01
                </leafValues>
            </_>
            <_>
                <internalNodes>
                    0 -1 54103 3.6514941602945328e-02
                </internalNodes>
                <leafValues>
                    4.9737188965082169e-02 -6.5617185831069946e-01
                </leafValues>
            </_>
            <_>
                <internalNodes>
                    0 -1 13375 2.7554207481443882e-03
                </internalNodes>
                <leafValues>
                    6.7551478743553162e-02 -5.0280171632766724e-01
                </leafValues>
            </_>
            <_>
                <internalNodes>
                    0 -1 88230 -2.4232325085904449e-04
                </internalNodes>
                <leafValues>
                    2.6052281260490417e-01 -1.3433122634887695e-01
                </leafValues>
            </_>
            <_>
                <internalNodes>
                    0 -1 161063 -1.9097211770713329e-04
                </internalNodes>
                <leafValues>
                    -3.2505497336387634e-01 1.1645123362541199e-01
                </leafValues>
            </_>
            <_>
                <internalNodes>
                    0 -1 62897 -8.8490941561758518e-04
                </internalNodes>
                <leafValues>
                    2.2049094736576080e-01 -1.7589552700519562e-01
                </leafValues>
            </_>
            <_>
                <internalNodes>
                    0 -1 70842 2.7974737808108330e-02
                </internalNodes>
                <leafValues>
                    6.5829053521156311e-02 -6.2950354814529419e-01
                </leafValues>
            </_>
            <_>
                <internalNodes>
                    0 -1 80549 -9.6391653642058372e-03
                </internalNodes>
                <leafValues>
                    3.5417303442955017e-01 -1.1475247889757156e-01
                </leafValues>
            </_>
            <_>
                <internalNodes>
                    0 -1 114151 -2.4557728320360184e-03
                </internalNodes>
                <leafValues>
                    3.2793843746185303e-01 -1.3253708183765411e-01
                </leafValues>
            </_>
            <_>
                <internalNodes>
                    0 -1 120566 -1.2120332103222609e-03
                </internalNodes>
                <leafValues>
                    3.8744303584098816e-01 -8.9050762355327606e-02
                </leafValues>
            </_>
            <_>
                <internalNodes>
                    0 -1 70484 -2.1741574164479971e-03
                </internalNodes>
                <leafValues>
                    2.9702326655387878e-01 -1.2821531295776367e-01
                </leafValues>
            </_>
            <_>
                <internalNodes>
                    0 -1 70073 -6.4510689117014408e-03
                </internalNodes>
                <leafValues>
                    -5.4795867204666138e-01 6.2863118946552277e-02
                </leafValues>
            </_>
            <_>
                <internalNodes>
                    0 -1 138466 5.2097323350608349e-04
                </internalNodes>
                <leafValues>
                    -1.4941580593585968e-01 2.5187557935714722e-01
                </leafValues>
            </_>
            <_>
                <internalNodes>
                    0 -1 86726 1.2101823085686192e-04
                </internalNodes>
                <leafValues>
                    -1.6380663216114044e-01 2.0723268389701843e-01
                </leafValues>
            </_>
            <_>
                <internalNodes>
                    0 -1 85830 -8.7666310719214380e-05
                </internalNodes>
                <leafValues>
                    1.9602474570274353e-01 -1.8380434811115265e-01
                </leafValues>
            </_>
            <_>
                <internalNodes>
                    0 -1 36150 1.0523113608360291e-01
                </internalNodes>
                <leafValues>
                    6.6538162529468536e-02 -5.3505510091781616e-01
                </leafValues>
            </_>
            <_>
                <internalNodes>
                    0 -1 149635 2.4404251598753035e-04
                </internalNodes>
                <leafValues>
                    -1.0912942886352539e-01 3.2248196005821228e-01
                </leafValues>
            </_>
            <_>
                <internalNodes>
                    0 -1 98827 1.3315577991306782e-02
                </internalNodes>
                <leafValues>
                    7.1186311542987823e-02 -5.0809586048126221e-01
                </leafValues>
            </_>
            <_>
                <internalNodes>
                    0 -1 72741 2.0901051163673401e-01
                </internalNodes>
                <leafValues>
                    -9.9469348788261414e-02 4.8644092679023743e-01
                </leafValues>
            </_>
            <_>
                <internalNodes>
                    0 -1 49116 9.9653806537389755e-03
                </internalNodes>
                <leafValues>
                    -7.8772857785224915e-02 4.7855621576309204e-01
                </leafValues>
            </_>
            <_>
                <internalNodes>
                    0 -1 109713 -2.4059679359197617e-02
                </internalNodes>
                <leafValues>
                    -8.3140188455581665e-01 4.9290083348751068e-02
                </leafValues>
            </_>
            <_>
                <internalNodes>
                    0 -1 38062 1.7487364821135998e-03
                </internalNodes>
                <leafValues>
                    7.6369494199752808e-02 -4.2562511563301086e-01
                </leafValues>
            </_>
            <_>
                <internalNodes>
                    0 -1 26128 -2.8898932505398989e-03
                </internalNodes>
                <leafValues>
                    4.4132059812545776e-01 -9.8237745463848114e-02
                </leafValues>
            </_>
        </weakClassifiers>
    </stage13>
</opencv_storage>
