<?xml version="1.0"?>
<opencv_storage>
    <stage25>
        <maxWeakCount>51</maxWeakCount>
        <stageThreshold>-5.3270888328552246e-01</stageThreshold>
        <weakClassifiers>
            <_>
                <internalNodes>
                    0 -1 134001 -3.4273094497621059e-03
                </internalNodes>
                <leafValues>
                    5.8709675073623657e-01 1.5454545617103577e-01
                </leafValues>
            </_>
            <_>
                <internalNodes>
                    0 -1 9129 -4.1303521394729614e-01
                </internalNodes>
                <leafValues>
                    5.3641247749328613e-01 -5.3800333291292191e-02
                </leafValues>
            </_>
            <_>
                <internalNodes>
                    0 -1 50759 9.3055684119462967e-03
                </internalNodes>
                <leafValues>
                    -7.7703982591629028e-02 6.6481113433837891e-01
                </leafValues>
            </_>
            <_>
                <internalNodes>
                    0 -1 37985 -1.1698129128490109e-05
                </internalNodes>
                <leafValues>
                    -2.4540047347545624e-01 1.2911303341388702e-01
                </leafValues>
            </_>
            <_>
                <internalNodes>
                    0 -1 46166 2.0786435925401747e-04
                </internalNodes>
                <leafValues>
                    -1.3360394537448883e-01 1.9131554663181305e-01
                </leafValues>
            </_>
            <_>
                <internalNodes>
                    0 -1 131048 7.4741728603839874e-02
                </internalNodes>
                <leafValues>
                    7.1017585694789886e-02 -4.2799371480941772e-01
                </leafValues>
            </_>
            <_>
                <internalNodes>
                    0 -1 10011 -1.2243703531567007e-04
                </internalNodes>
                <leafValues>
                    -2.9020923376083374e-01 1.2543226778507233e-01
                </leafValues>
            </_>
            <_>
                <internalNodes>
                    0 -1 8149 1.1011259630322456e-05
                </internalNodes>
                <leafValues>
                    1.8252758681774139e-01 -1.9945147633552551e-01
                </leafValues>
            </_>
            <_>
                <internalNodes>
                    0 -1 106098 1.6961821820586920e-03
                </internalNodes>
                <leafValues>
                    -9.3354508280754089e-02 3.4531697630882263e-01
                </leafValues>
            </_>
            <_>
                <internalNodes>
                    0 -1 157009 2.6184017769992352e-05
                </internalNodes>
                <leafValues>
                    1.7188772559165955e-01 -1.6370740532875061e-01
                </leafValues>
            </_>
            <_>
                <internalNodes>
                    0 -1 137365 -1.0797221329994500e-04
                </internalNodes>
                <leafValues>
                    2.1961827576160431e-01 -1.3200148940086365e-01
                </leafValues>
            </_>
            <_>
                <internalNodes>
                    0 -1 133883 -1.9426755607128143e-02
                </internalNodes>
                <leafValues>
                    -3.9451023936271667e-01 6.3995748758316040e-02
                </leafValues>
            </_>
            <_>
                <internalNodes>
                    0 -1 155239 -8.3352810179349035e-05
                </internalNodes>
                <leafValues>
                    -2.6642027497291565e-01 9.3976832926273346e-02
                </leafValues>
            </_>
            <_>
                <internalNodes>
                    0 -1 62147 -1.3204617425799370e-03
                </internalNodes>
                <leafValues>
                    3.4838384389877319e-01 -8.6008526384830475e-02
                </leafValues>
            </_>
            <_>
                <internalNodes>
                    0 -1 126663 4.8133273958228528e-04
                </internalNodes>
                <leafValues>
                    -1.1477622389793396e-01 2.4445828795433044e-01
                </leafValues>
            </_>
            <_>
                <internalNodes>
                    0 -1 107469 6.2009892426431179e-03
                </internalNodes>
                <leafValues>
                    6.4355410635471344e-02 -4.3251124024391174e-01
                </leafValues>
            </_>
            <_>
                <internalNodes>
                    0 -1 1121 1.8732936587184668e-03
                </internalNodes>
                <leafValues>
                    -6.4852543175220490e-02 4.2250752449035645e-01
                </leafValues>
            </_>
            <_>
                <internalNodes>
                    0 -1 155186 -1.2899519642814994e-03
                </internalNodes>
                <leafValues>
                    -3.6685496568679810e-01 7.6933026313781738e-02
                </leafValues>
            </_>
            <_>
                <internalNodes>
                    0 -1 13289 4.5373495668172836e-03
                </internalNodes>
                <leafValues>
                    -1.0516235232353210e-01 2.5171336531639099e-01
                </leafValues>
            </_>
            <_>
                <internalNodes>
                    0 -1 37861 -9.7980303689837456e-04
                </internalNodes>
                <leafValues>
                    2.0456694066524506e-01 -1.7547853291034698e-01
                </leafValues>
            </_>
            <_>
                <internalNodes>
                    0 -1 126107 5.4366798140108585e-03
                </internalNodes>
                <leafValues>
                    4.8785917460918427e-02 -5.2327114343643188e-01
                </leafValues>
            </_>
            <_>
                <internalNodes>
                    0 -1 10437 5.6540831923484802e-02
                </internalNodes>
                <leafValues>
                    1.0272900015115738e-01 -2.4136185646057129e-01
                </leafValues>
            </_>
            <_>
                <internalNodes>
                    0 -1 48392 1.4685890637338161e-02
                </internalNodes>
                <leafValues>
                    1.1767584830522537e-01 -2.6165688037872314e-01
                </leafValues>
            </_>
            <_>
                <internalNodes>
                    0 -1 107432 -3.5161225241608918e-04
                </internalNodes>
                <leafValues>
                    3.2668367028236389e-01 -8.4687978029251099e-02
                </leafValues>
            </_>
            <_>
                <internalNodes>
                    0 -1 134228 2.5787143968045712e-03
                </internalNodes>
                <leafValues>
                    9.2194840312004089e-02 -3.7173035740852356e-01
                </leafValues>
            </_>
            <_>
                <internalNodes>
                    0 -1 31300 -3.2819077372550964e-02
                </internalNodes>
                <leafValues>
                    -7.5932788848876953e-01 3.8403738290071487e-02
                </leafValues>
            </_>
            <_>
                <internalNodes>
                    0 -1 154062 -2.6726600481197238e-04
                </internalNodes>
                <leafValues>
                    2.0072954893112183e-01 -1.5953162312507629e-01
                </leafValues>
            </_>
            <_>
                <internalNodes>
                    0 -1 15626 -2.6002369821071625e-02
                </internalNodes>
                <leafValues>
                    -2.2273735702037811e-01 1.3044732809066772e-01
                </leafValues>
            </_>
            <_>
                <internalNodes>
                    0 -1 22758 -7.5919931987300515e-05
                </internalNodes>
                <leafValues>
                    -1.7365650832653046e-01 1.7081612348556519e-01
                </leafValues>
            </_>
            <_>
                <internalNodes>
                    0 -1 141509 6.4789513126015663e-03
                </internalNodes>
                <leafValues>
                    3.7009213119745255e-02 -6.9855338335037231e-01
                </leafValues>
            </_>
            <_>
                <internalNodes>
                    0 -1 105368 -1.7593592638149858e-03
                </internalNodes>
                <leafValues>
                    4.0747040510177612e-01 -7.7269405126571655e-02
                </leafValues>
            </_>
            <_>
                <internalNodes>
                    0 -1 11 6.6218706779181957e-03
                </internalNodes>
                <leafValues>
                    4.2347885668277740e-02 -7.3558276891708374e-01
                </leafValues>
            </_>
            <_>
                <internalNodes>
                    0 -1 55047 -9.9201910197734833e-03
                </internalNodes>
                <leafValues>
                    -5.2150088548660278e-01 4.3962851166725159e-02
                </leafValues>
            </_>
            <_>
                <internalNodes>
                    0 -1 139346 2.5936815887689590e-02
                </internalNodes>
                <leafValues>
                    3.0408348888158798e-02 -8.0982661247253418e-01
                </leafValues>
            </_>
            <_>
                <internalNodes>
                    0 -1 22205 -2.3671558126807213e-02
                </internalNodes>
                <leafValues>
                    7.7440989017486572e-01 -4.2567670345306396e-02
                </leafValues>
            </_>
            <_>
                <internalNodes>
                    0 -1 89696 3.4237909130752087e-03
                </internalNodes>
                <leafValues>
                    9.8956376314163208e-02 -2.9436409473419189e-01
                </leafValues>
            </_>
            <_>
                <internalNodes>
                    0 -1 145107 1.2058569118380547e-03
                </internalNodes>
                <leafValues>
                    -8.1800945103168488e-02 3.1807771325111389e-01
                </leafValues>
            </_>
            <_>
                <internalNodes>
                    0 -1 113853 -2.8414927423000336e-02
                </internalNodes>
                <leafValues>
                    4.2676600813865662e-01 -5.9039324522018433e-02
                </leafValues>
            </_>
            <_>
                <internalNodes>
                    0 -1 130743 5.5110234767198563e-02
                </internalNodes>
                <leafValues>
                    -8.6750358343124390e-02 3.0865734815597534e-01
                </leafValues>
            </_>
            <_>
                <internalNodes>
                    0 -1 57555 4.2276464402675629e-02
                </internalNodes>
                <leafValues>
                    -1.3213585317134857e-01 2.1841742098331451e-01
                </leafValues>
            </_>
            <_>
                <internalNodes>
                    0 -1 18019 1.3359331060200930e-03
                </internalNodes>
                <leafValues>
                    -6.0887772589921951e-02 4.3711221218109131e-01
                </leafValues>
            </_>
            <_>
                <internalNodes>
                    0 -1 13 -3.3212131820619106e-03
                </internalNodes>
                <leafValues>
                    -4.6696418523788452e-01 6.1295226216316223e-02
                </leafValues>
            </_>
            <_>
                <internalNodes>
                    0 -1 1112 5.3259090054780245e-04
                </internalNodes>
                <leafValues>
                    9.2564754188060760e-02 -3.0750948190689087e-01
                </leafValues>
            </_>
            <_>
                <internalNodes>
                    0 -1 91745 3.6840827669948339e-04
                </internalNodes>
                <leafValues>
                    -1.4288839697837830e-01 2.0550400018692017e-01
                </leafValues>
            </_>
            <_>
                <internalNodes>
                    0 -1 4972 -2.0918350666761398e-02
                </internalNodes>
                <leafValues>
                    1.9297236204147339e-01 -1.6755577921867371e-01
                </leafValues>
            </_>
            <_>
                <internalNodes>
                    0 -1 116323 -3.5179834812879562e-02
                </internalNodes>
                <leafValues>
                    -3.4826081991195679e-01 7.9648159444332123e-02
                </leafValues>
            </_>
            <_>
                <internalNodes>
                    0 -1 145665 -3.9486973546445370e-03
                </internalNodes>
                <leafValues>
                    2.8367865085601807e-01 -9.0198561549186707e-02
                </leafValues>
            </_>
            <_>
                <internalNodes>
                    0 -1 470 -2.8985446691513062e-01
                </internalNodes>
                <leafValues>
                    -5.0393587350845337e-01 5.1148638129234314e-02
                </leafValues>
            </_>
            <_>
                <internalNodes>
                    0 -1 53083 2.3645672481507063e-03
                </internalNodes>
                <leafValues>
                    7.9501673579216003e-02 -3.2100507616996765e-01
                </leafValues>
            </_>
            <_>
                <internalNodes>
                    0 -1 11884 5.8605779486242682e-05
                </internalNodes>
                <leafValues>
                    1.0796490311622620e-01 -2.2078454494476318e-01
                </leafValues>
            </_>
            <_>
                <internalNodes>
                    0 -1 98471 -5.9293699450790882e-04
                </internalNodes>
                <leafValues>
                    1.8996225297451019e-01 -1.3449993729591370e-01
                </leafValues>
            </_>
        </weakClassifiers>
    </stage25>
</opencv_storage>
