<?xml version="1.0"?>
<opencv_storage>
    <stage16>
        <maxWeakCount>41</maxWeakCount>
        <stageThreshold>-6.8086522817611694e-01</stageThreshold>
        <weakClassifiers>
            <_>
                <internalNodes>
                    0 -1 2711 -6.1120665073394775e-01
                </internalNodes>
                <leafValues>
                    7.4000000953674316e-01 1.8545454740524292e-01
                </leafValues>
            </_>
            <_>
                <internalNodes>
                    0 -1 121778 -8.6463987827301025e-03
                </internalNodes>
                <leafValues>
                    3.3057031035423279e-01 -9.6492387354373932e-02
                </leafValues>
            </_>
            <_>
                <internalNodes>
                    0 -1 159927 -2.6110761609743349e-05
                </internalNodes>
                <leafValues>
                    -2.5891968607902527e-01 1.5590944886207581e-01
                </leafValues>
            </_>
            <_>
                <internalNodes>
                    0 -1 36351 -8.6494013667106628e-03
                </internalNodes>
                <leafValues>
                    2.2622673213481903e-01 -2.1386763453483582e-01
                </leafValues>
            </_>
            <_>
                <internalNodes>
                    0 -1 98648 1.0198659263551235e-02
                </internalNodes>
                <leafValues>
                    8.9944586157798767e-02 -5.3550773859024048e-01
                </leafValues>
            </_>
            <_>
                <internalNodes>
                    0 -1 105641 -1.7030804883688688e-04
                </internalNodes>
                <leafValues>
                    2.3910492658615112e-01 -1.5415820479393005e-01
                </leafValues>
            </_>
            <_>
                <internalNodes>
                    0 -1 134329 -1.1175392195582390e-02
                </internalNodes>
                <leafValues>
                    -3.5629275441169739e-01 9.2212133109569550e-02
                </leafValues>
            </_>
            <_>
                <internalNodes>
                    0 -1 132404 -2.5834999978542328e-03
                </internalNodes>
                <leafValues>
                    2.5875052809715271e-01 -1.4452277123928070e-01
                </leafValues>
            </_>
            <_>
                <internalNodes>
                    0 -1 128336 -1.1958286166191101e-02
                </internalNodes>
                <leafValues>
                    -7.8166955709457397e-01 4.7744151204824448e-02
                </leafValues>
            </_>
            <_>
                <internalNodes>
                    0 -1 161898 -9.1073848307132721e-04
                </internalNodes>
                <leafValues>
                    -4.4968798756599426e-01 6.7325793206691742e-02
                </leafValues>
            </_>
            <_>
                <internalNodes>
                    0 -1 77413 -4.2300406843423843e-02
                </internalNodes>
                <leafValues>
                    -5.6816858053207397e-01 6.1188653111457825e-02
                </leafValues>
            </_>
            <_>
                <internalNodes>
                    0 -1 89126 4.5739267021417618e-02
                </internalNodes>
                <leafValues>
                    -6.6558040678501129e-02 5.0617033243179321e-01
                </leafValues>
            </_>
            <_>
                <internalNodes>
                    0 -1 17179 -3.7616868212353438e-05
                </internalNodes>
                <leafValues>
                    -2.5702619552612305e-01 1.3539737462997437e-01
                </leafValues>
            </_>
            <_>
                <internalNodes>
                    0 -1 49381 -2.6221594307571650e-03
                </internalNodes>
                <leafValues>
                    2.3905922472476959e-01 -1.5733937919139862e-01
                </leafValues>
            </_>
            <_>
                <internalNodes>
                    0 -1 124260 1.7696867871563882e-04
                </internalNodes>
                <leafValues>
                    -1.3631992042064667e-01 2.4443963170051575e-01
                </leafValues>
            </_>
            <_>
                <internalNodes>
                    0 -1 43864 -4.8676313599571586e-04
                </internalNodes>
                <leafValues>
                    2.2986210882663727e-01 -1.5435802936553955e-01
                </leafValues>
            </_>
            <_>
                <internalNodes>
                    0 -1 6402 -2.4599481374025345e-02
                </internalNodes>
                <leafValues>
                    -5.8002912998199463e-01 7.4082955718040466e-02
                </leafValues>
            </_>
            <_>
                <internalNodes>
                    0 -1 11885 -2.8639271477004513e-05
                </internalNodes>
                <leafValues>
                    -2.3407040536403656e-01 1.4504104852676392e-01
                </leafValues>
            </_>
            <_>
                <internalNodes>
                    0 -1 127963 -6.2121683731675148e-04
                </internalNodes>
                <leafValues>
                    2.4442255496978760e-01 -1.4238564670085907e-01
                </leafValues>
            </_>
            <_>
                <internalNodes>
                    0 -1 84145 3.1096453312784433e-04
                </internalNodes>
                <leafValues>
                    -1.6818712651729584e-01 2.4960310757160187e-01
                </leafValues>
            </_>
            <_>
                <internalNodes>
                    0 -1 11054 -1.1160711292177439e-03
                </internalNodes>
                <leafValues>
                    -3.3795419335365295e-01 1.1527521163225174e-01
                </leafValues>
            </_>
            <_>
                <internalNodes>
                    0 -1 151882 2.0378658082336187e-03
                </internalNodes>
                <leafValues>
                    7.6126277446746826e-02 -4.1008874773979187e-01
                </leafValues>
            </_>
            <_>
                <internalNodes>
                    0 -1 160462 -2.2382140159606934e-03
                </internalNodes>
                <leafValues>
                    4.9922180175781250e-01 -8.0508008599281311e-02
                </leafValues>
            </_>
            <_>
                <internalNodes>
                    0 -1 162099 4.5830027374904603e-05
                </internalNodes>
                <leafValues>
                    1.3920077681541443e-01 -2.6048982143402100e-01
                </leafValues>
            </_>
            <_>
                <internalNodes>
                    0 -1 72316 9.6802803454920650e-04
                </internalNodes>
                <leafValues>
                    -6.6972777247428894e-02 5.1126790046691895e-01
                </leafValues>
            </_>
            <_>
                <internalNodes>
                    0 -1 66448 -3.9247632026672363e-02
                </internalNodes>
                <leafValues>
                    -7.8021430969238281e-01 5.1428310573101044e-02
                </leafValues>
            </_>
            <_>
                <internalNodes>
                    0 -1 104113 4.5801834203302860e-03
                </internalNodes>
                <leafValues>
                    9.6954412758350372e-02 -3.2292339205741882e-01
                </leafValues>
            </_>
            <_>
                <internalNodes>
                    0 -1 88833 3.6994947586208582e-03
                </internalNodes>
                <leafValues>
                    -6.0113646090030670e-02 6.0399889945983887e-01
                </leafValues>
            </_>
            <_>
                <internalNodes>
                    0 -1 113361 6.5541302319616079e-04
                </internalNodes>
                <leafValues>
                    -1.3353948295116425e-01 2.7436530590057373e-01
                </leafValues>
            </_>
            <_>
                <internalNodes>
                    0 -1 154247 2.7899321867153049e-04
                </internalNodes>
                <leafValues>
                    -1.1178421229124069e-01 3.1683215498924255e-01
                </leafValues>
            </_>
            <_>
                <internalNodes>
                    0 -1 103578 -1.7477948218584061e-02
                </internalNodes>
                <leafValues>
                    -7.5389581918716431e-01 4.8922624439001083e-02
                </leafValues>
            </_>
            <_>
                <internalNodes>
                    0 -1 156919 -1.3068879488855600e-03
                </internalNodes>
                <leafValues>
                    2.4655857682228088e-01 -1.4961925148963928e-01
                </leafValues>
            </_>
            <_>
                <internalNodes>
                    0 -1 139229 3.8396479794755578e-04
                </internalNodes>
                <leafValues>
                    1.0012166947126389e-01 -3.5865899920463562e-01
                </leafValues>
            </_>
            <_>
                <internalNodes>
                    0 -1 151231 7.0594530552625656e-03
                </internalNodes>
                <leafValues>
                    4.6550907194614410e-02 -6.8425279855728149e-01
                </leafValues>
            </_>
            <_>
                <internalNodes>
                    0 -1 114573 -2.5961073115468025e-03
                </internalNodes>
                <leafValues>
                    4.2338368296623230e-01 -8.5980601608753204e-02
                </leafValues>
            </_>
            <_>
                <internalNodes>
                    0 -1 121346 -6.4367614686489105e-04
                </internalNodes>
                <leafValues>
                    -4.6016344428062439e-01 7.6612278819084167e-02
                </leafValues>
            </_>
            <_>
                <internalNodes>
                    0 -1 156184 3.0902151484042406e-03
                </internalNodes>
                <leafValues>
                    -9.9335208535194397e-02 3.8763570785522461e-01
                </leafValues>
            </_>
            <_>
                <internalNodes>
                    0 -1 1872 2.4946510791778564e-02
                </internalNodes>
                <leafValues>
                    1.3580431044101715e-01 -2.7094781398773193e-01
                </leafValues>
            </_>
            <_>
                <internalNodes>
                    0 -1 134439 -1.8122749403119087e-02
                </internalNodes>
                <leafValues>
                    -5.8789241313934326e-01 6.2112763524055481e-02
                </leafValues>
            </_>
            <_>
                <internalNodes>
                    0 -1 76280 5.1728188991546631e-03
                </internalNodes>
                <leafValues>
                    6.0265973210334778e-02 -5.8344095945358276e-01
                </leafValues>
            </_>
            <_>
                <internalNodes>
                    0 -1 93163 1.2633822858333588e-02
                </internalNodes>
                <leafValues>
                    6.2040749937295914e-02 -5.4573041200637817e-01
                </leafValues>
            </_>
        </weakClassifiers>
    </stage16>
</opencv_storage>
