<?xml version="1.0"?>
<opencv_storage>
    <cascade>
        <stageType>BOOST</stageType>
        <featureType>HAAR</featureType>
        <height>24</height>
        <width>24</width>
        <stageParams>
            <boostType>GAB</boostType>
            <minHitRate>9.9500000476837158e-01</minHitRate>
            <maxFalseAlarm>5.0000000000000000e-01</maxFalseAlarm>
            <weightTrimRate>9.4999999999999996e-01</weightTrimRate>
            <maxDepth>1</maxDepth>
            <maxWeakCount>100</maxWeakCount>
        </stageParams>
        <featureParams>
            <maxCatCount>0</maxCatCount>
            <featSize>1</featSize>
            <mode>BASIC</mode>
        </featureParams>
        <stageNum>20</stageNum>
        <stages>
            <!-- stage 0 -->
            <_>
                <maxWeakCount>14</maxWeakCount>
                <stageThreshold>-9.9204117059707642e-01</stageThreshold>
                <weakClassifiers>
                    <_>
                        <internalNodes>
                            0 -1 169 9.5766093581914902e-03
                        </internalNodes>
                        <leafValues>
                            1.0155535489320755e-01 9.5577394962310791e-01
                        </leafValues>
                    </_>
                    <_>
                        <internalNodes>
                            0 -1 175 -3.4133508801460266e-02
                        </internalNodes>
                        <leafValues>
                            6.0423523187637329e-01 -1.2382443994283676e-01
                        </leafValues>
                    </_>
                    <_>
                        <internalNodes>
                            0 -1 328 3.9841786026954651e-02
                        </internalNodes>
                        <leafValues>
                            -2.3813949525356293e-01 6.1021101474761963e-01
                        </leafValues>
                    </_>
                    <_>
                        <internalNodes>
                            0 -1 346 -1.1603210121393204e-02
                        </internalNodes>
                        <leafValues>
                            6.8554294109344482e-01 -1.2640546262264252e-01
                        </leafValues>
                    </_>
                    <_>
                        <internalNodes>
                            0 -1 222 2.6864431798458099e-02
                        </internalNodes>
                        <leafValues>
                            -1.7856499552726746e-01 8.2321709394454956e-01
                        </leafValues>
                    </_>
                    <_>
                        <internalNodes>
                            0 -1 310 -2.0134625956416130e-03
                        </internalNodes>
                        <leafValues>
                            5.0902545452117920e-01 -1.8568791449069977e-01
                        </leafValues>
                    </_>
                    <_>
                        <internalNodes>
                            0 -1 276 -1.1997364461421967e-02
                        </internalNodes>
                        <leafValues>
                            5.3249084949493408e-01 -1.8069492280483246e-01
                        </leafValues>
                    </_>
                    <_>
                        <internalNodes>
                            0 -1 86 1.3583837426267564e-04
                        </internalNodes>
                        <leafValues>
                            2.1395304799079895e-01 -4.9931412935256958e-01
                        </leafValues>
                    </_>
                    <_>
                        <internalNodes>
                            0 -1 414 -4.8677634913474321e-04
                        </internalNodes>
                        <leafValues>
                            3.7288764119148254e-01 -2.5638034939765930e-01
                        </leafValues>
                    </_>
                    <_>
                        <internalNodes>
                            0 -1 594 -1.5868325135670602e-04
                        </internalNodes>
                        <leafValues>
                            -3.7523204088211060e-01 2.4296438694000244e-01
                        </leafValues>
                    </_>
                    <_>
                        <internalNodes>
                            0 -1 252 -5.5134855210781097e-03
                        </internalNodes>
                        <leafValues>
                            4.2308759689331055e-01 -2.4310372769832611e-01
                        </leafValues>
                    </_>
                    <_>
                        <internalNodes>
                            0 -1 189 2.4027852341532707e-02
                        </internalNodes>
                        <leafValues>
                            -1.2825514376163483e-01 7.3609298467636108e-01
                        </leafValues>
                    </_>
                    <_>
                        <internalNodes>
                            0 -1 106 -2.1549550001509488e-04
                        </internalNodes>
                        <leafValues>
                            -4.0757602453231812e-01 2.3159770667552948e-01
                        </leafValues>
                    </_>
                    <_>
                        <internalNodes>
                            0 -1 377 -3.6446042358875275e-03
                        </internalNodes>
                        <leafValues>
                            3.9333391189575195e-01 -2.3091846704483032e-01
                        </leafValues>
                    </_>
                </weakClassifiers>
            </_>
            <!-- stage 1 -->
            <_>
                <maxWeakCount>14</maxWeakCount>
                <stageThreshold>-1.0513682365417480e+00</stageThreshold>
                <weakClassifiers>
                    <_>
                        <internalNodes>
                            0 -1 287 6.6384645178914070e-03
                        </internalNodes>
                        <leafValues>
                            9.7465887665748596e-02 8.4388184547424316e-01
                        </leafValues>
                    </_>
                    <_>
                        <internalNodes>
                            0 -1 123 -8.2253292202949524e-02
                        </internalNodes>
                        <leafValues>
                            5.8482581377029419e-01 -1.7108286917209625e-01
                        </leafValues>
                    </_>
                    <_>
                        <internalNodes>
                            0 -1 353 8.1131551414728165e-03
                        </internalNodes>
                        <leafValues>
                            -1.2208116799592972e-01 7.5527590513229370e-01
                        </leafValues>
                    </_>
                    <_>
                        <internalNodes>
                            0 -1 195 -6.8628862500190735e-03
                        </internalNodes>
                        <leafValues>
                            6.0992217063903809e-01 -1.9116061925888062e-01
                        </leafValues>
                    </_>
                    <_>
                        <internalNodes>
                            0 -1 191 -2.3509178310632706e-02
                        </internalNodes>
                        <leafValues>
                            6.5123879909515381e-01 -1.4756616950035095e-01
                        </leafValues>
                    </_>
                    <_>
                        <internalNodes>
                            0 -1 32 4.2109501361846924e-01
                        </internalNodes>
                        <leafValues>
                            -1.1959841847419739e-01 8.2833284139633179e-01
                        </leafValues>
                    </_>
                    <_>
                        <internalNodes>
                            0 -1 135 -1.0725569725036621e-01
                        </internalNodes>
                        <leafValues>
                            -6.1192148923873901e-01 2.0220358669757843e-01
                        </leafValues>
                    </_>
                    <_>
                        <internalNodes>
                            0 -1 462 -4.9480621237307787e-04
                        </internalNodes>
                        <leafValues>
                            3.3854246139526367e-01 -3.0110675096511841e-01
                        </leafValues>
                    </_>
                    <_>
                        <internalNodes>
                            0 -1 314 -9.3438732437789440e-04
                        </internalNodes>
                        <leafValues>
                            4.9429750442504883e-01 -1.9177581369876862e-01
                        </leafValues>
                    </_>
                    <_>
                        <internalNodes>
                            0 -1 78 4.7865733504295349e-02
                        </internalNodes>
                        <leafValues>
                            1.5470297634601593e-01 -6.4781659841537476e-01
                        </leafValues>
                    </_>
                    <_>
                        <internalNodes>
                            0 -1 391 -9.5662125386297703e-04
                        </internalNodes>
                        <leafValues>
                            4.9645957350730896e-01 -1.8440207839012146e-01
                        </leafValues>
                    </_>
                    <_>
                        <internalNodes>
                            0 -1 254 -6.3738096505403519e-03
                        </internalNodes>
                        <leafValues>
                            6.3107931613922119e-01 -1.3114331662654877e-01
                        </leafValues>
                    </_>
                    <_>
                        <internalNodes>
                            0 -1 118 -2.0896621048450470e-02
                        </internalNodes>
                        <leafValues>
                            -6.0230308771133423e-01 1.8538510799407959e-01
                        </leafValues>
                    </_>
                    <_>
                        <internalNodes>
                            0 -1 437 -6.0526601737365127e-04
                        </internalNodes>
                        <leafValues>
                            4.7847262024879456e-01 -2.2087743878364563e-01
                        </leafValues>
                    </_>
                </weakClassifiers>
            </_>
            <!-- stage 2 -->
            <_>
                <maxWeakCount>16</maxWeakCount>
                <stageThreshold>-1.0225189924240112e+00</stageThreshold>
                <weakClassifiers>
                    <_>
                        <internalNodes>
                            0 -1 61 -1.8593017756938934e-01
                        </internalNodes>
                        <leafValues>
                            8.4105962514877319e-01 -8.9285718277096748e-03
                        </leafValues>
                    </_>
                    <_>
                        <internalNodes>
                            0 -1 578 -2.2117784828878939e-04
                        </internalNodes>
                        <leafValues>
                            -4.5604619383811951e-01 3.6485242843627930e-01
                        </leafValues>
                    </_>
                    <_>
                        <internalNodes>
                            0 -1 576 3.7764338776469231e-04
                        </internalNodes>
                        <leafValues>
                            1.8390345573425293e-01 -6.5035074949264526e-01
                        </leafValues>
                    </_>
                    <_>
                        <internalNodes>
                            0 -1 390 -7.7413052320480347e-02
                        </internalNodes>
                        <leafValues>
                            5.7900655269622803e-01 -1.8842744827270508e-01
                        </leafValues>
                    </_>
                    <_>
                        <internalNodes>
                            0 -1 12 -5.9393625706434250e-02
                        </internalNodes>
                        <leafValues>
                            5.5357724428176880e-01 -2.2212763130664825e-01
                        </leafValues>
                    </_>
                    <_>
                        <internalNodes>
                            0 -1 159 -2.7623847126960754e-01
                        </internalNodes>
                        <leafValues>
                            7.5854527950286865e-01 -9.5104627311229706e-02
                        </leafValues>
                    </_>
                    <_>
                        <internalNodes>
                            0 -1 39 9.5805563032627106e-02
                        </internalNodes>
                        <leafValues>
                            -2.4922022223472595e-01 5.4801869392395020e-01
                        </leafValues>
                    </_>
                    <_>
                        <internalNodes>
                            0 -1 90 -2.5041829212568700e-04
                        </internalNodes>
                        <leafValues>
                            -3.3954915404319763e-01 2.1384702622890472e-01
                        </leafValues>
                    </_>
                    <_>
                        <internalNodes>
                            0 -1 111 1.2354033067822456e-02
                        </internalNodes>
                        <leafValues>
                            -1.3270637392997742e-01 5.1887381076812744e-01
                        </leafValues>
                    </_>
                    <_>
                        <internalNodes>
                            0 -1 307 3.6460347473621368e-02
                        </internalNodes>
                        <leafValues>
                            -1.2624450027942657e-01 5.7426702976226807e-01
                        </leafValues>
                    </_>
                    <_>
                        <internalNodes>
                            0 -1 502 3.5971596837043762e-02
                        </internalNodes>
                        <leafValues>
                            -1.7243893444538116e-01 4.4690933823585510e-01
                        </leafValues>
                    </_>
                    <_>
                        <internalNodes>
                            0 -1 323 4.4320556335151196e-03
                        </internalNodes>
                        <leafValues>
                            -2.0677626132965088e-01 3.4056606888771057e-01
                        </leafValues>
                    </_>
                    <_>
                        <internalNodes>
                            0 -1 384 6.9130887277424335e-04
                        </internalNodes>
                        <leafValues>
                            1.1343542486429214e-01 -6.9190847873687744e-01
                        </leafValues>
                    </_>
                    <_>
                        <internalNodes>
                            0 -1 515 -6.5899849869310856e-04
                        </internalNodes>
                        <leafValues>
                            -4.5623904466629028e-01 1.4407762885093689e-01
                        </leafValues>
                    </_>
                    <_>
                        <internalNodes>
                            0 -1 394 3.4931402187794447e-03
                        </internalNodes>
                        <leafValues>
                            -1.8601487576961517e-01 3.5036954283714294e-01
                        </leafValues>
                    </_>
                    <_>
                        <internalNodes>
                            0 -1 492 5.2450413932092488e-05
                        </internalNodes>
                        <leafValues>
                            1.8336868286132812e-01 -3.4010154008865356e-01
                        </leafValues>
                    </_>
                </weakClassifiers>
            </_>
            <!-- stage 3 -->
            <_>
                <maxWeakCount>20</maxWeakCount>
                <stageThreshold>-9.0547829866409302e-01</stageThreshold>
                <weakClassifiers>
                    <_>
                        <internalNodes>
                            0 -1 14 -1.3682571053504944e-01
                        </internalNodes>
                        <leafValues>
                            8.1621623039245605e-01 4.9735449254512787e-02
                        </leafValues>
                    </_>
                    <_>
                        <internalNodes>
                            0 -1 144 5.5417045950889587e-04
                        </internalNodes>
                        <leafValues>
                            2.2400467097759247e-01 -4.9141722917556763e-01
                        </leafValues>
                    </_>
                    <_>
                        <internalNodes>
                            0 -1 327 -2.3400969803333282e-03
                        </internalNodes>
                        <leafValues>
                            3.6664089560508728e-01 -2.2293341159820557e-01
                        </leafValues>
                    </_>
                    <_>
                        <internalNodes>
                            0 -1 561 7.5788353569805622e-05
                        </internalNodes>
                        <leafValues>
                            1.8534615635871887e-01 -4.5909577608108521e-01
                        </leafValues>
                    </_>
                    <_>
                        <internalNodes>
                            0 -1 25 3.0407062172889709e-01
                        </internalNodes>
                        <leafValues>
                            -2.0721694827079773e-01 6.4182817935943604e-01
                        </leafValues>
                    </_>
                    <_>
                        <internalNodes>
                            0 -1 370 1.4410971105098724e-01
                        </internalNodes>
                        <leafValues>
                            -1.1208155751228333e-01 5.9536832571029663e-01
                        </leafValues>
                    </_>
                    <_>
                        <internalNodes>
                            0 -1 264 1.6341574955731630e-03
                        </internalNodes>
                        <leafValues>
                            -1.6337165236473083e-01 4.8768678307533264e-01
                        </leafValues>
                    </_>
                    <_>
                        <internalNodes>
                            0 -1 412 -1.1808583512902260e-03
                        </internalNodes>
                        <leafValues>
                            3.1426075100898743e-01 -2.1171867847442627e-01
                        </leafValues>
                    </_>
                    <_>
                        <internalNodes>
                            0 -1 170 3.6427152808755636e-03
                        </internalNodes>
                        <leafValues>
                            9.6178710460662842e-02 -6.9890427589416504e-01
                        </leafValues>
                    </_>
                    <_>
                        <internalNodes>
                            0 -1 266 -1.5885899774730206e-03
                        </internalNodes>
                        <leafValues>
                            3.2605302333831787e-01 -1.9482596218585968e-01
                        </leafValues>
                    </_>
                    <_>
                        <internalNodes>
                            0 -1 116 8.1126963777933270e-05
                        </internalNodes>
                        <leafValues>
                            1.9970141351222992e-01 -3.1844672560691833e-01
                        </leafValues>
                    </_>
                    <_>
                        <internalNodes>
                            0 -1 293 1.7518263775855303e-03
                        </internalNodes>
                        <leafValues>
                            -1.9819749891757965e-01 3.6546838283538818e-01
                        </leafValues>
                    </_>
                    <_>
                        <internalNodes>
                            0 -1 251 -1.4297139132395387e-03
                        </internalNodes>
                        <leafValues>
                            3.5050466656684875e-01 -1.9196826219558716e-01
                        </leafValues>
                    </_>
                    <_>
                        <internalNodes>
                            0 -1 288 4.1950438171625137e-03
                        </internalNodes>
                        <leafValues>
                            1.1544697731733322e-01 -6.0107970237731934e-01
                        </leafValues>
                    </_>
                    <_>
                        <internalNodes>
                            0 -1 415 -2.7956211124546826e-04
                        </internalNodes>
                        <leafValues>
                            2.7794542908668518e-01 -2.3844829201698303e-01
                        </leafValues>
                    </_>
                    <_>
                        <internalNodes>
                            0 -1 532 3.2360979821532965e-04
                        </internalNodes>
                        <leafValues>
                            2.0146767795085907e-01 -3.5520038008689880e-01
                        </leafValues>
                    </_>
                    <_>
                        <internalNodes>
                            0 -1 439 -5.1494799554347992e-03
                        </internalNodes>
                        <leafValues>
                            -6.5189963579177856e-01 8.4708005189895630e-02
                        </leafValues>
                    </_>
                    <_>
                        <internalNodes>
                            0 -1 226 3.2481208443641663e-02
                        </internalNodes>
                        <leafValues>
                            -1.2317372113466263e-01 5.3060048818588257e-01
                        </leafValues>
                    </_>
                    <_>
                        <internalNodes>
                            0 -1 112 -1.8614070490002632e-02
                        </internalNodes>
                        <leafValues>
                            7.9291075468063354e-01 -7.7893055975437164e-02
                        </leafValues>
                    </_>
                    <_>
                        <internalNodes>
                            0 -1 551 -1.8399077816866338e-04
                        </internalNodes>
                        <leafValues>
                            4.1755542159080505e-01 -1.5314461290836334e-01
                        </leafValues>
                    </_>
                </weakClassifiers>
            </_>
            <!-- stage 4 -->
            <_>
                <maxWeakCount>15</maxWeakCount>
                <stageThreshold>-7.1669143438339233e-01</stageThreshold>
                <weakClassifiers>
                    <_>
                        <internalNodes>
                            0 -1 66 -1.3348105549812317e-01
                        </internalNodes>
                        <leafValues>
                            7.7845221757888794e-01 -1.5457788482308388e-02
                        </leafValues>
                    </_>
                    <_>
                        <internalNodes>
                            0 -1 15 -4.7811907529830933e-01
                        </internalNodes>
                        <leafValues>
                            7.6047235727310181e-01 -5.9643801301717758e-02
                        </leafValues>
                    </_>
                    <_>
                        <internalNodes>
                            0 -1 126 1.7096485942602158e-02
                        </internalNodes>
                        <leafValues>
                            -1.9716234505176544e-01 6.2242722511291504e-01
                        </leafValues>
                    </_>
                    <_>
                        <internalNodes>
                            0 -1 23 -2.7546256780624390e-02
                        </internalNodes>
                        <leafValues>
                            -8.0072736740112305e-01 1.2370620667934418e-01
                        </leafValues>
                    </_>
                    <_>
                        <internalNodes>
                            0 -1 243 -3.6716327071189880e-02
                        </internalNodes>
                        <leafValues>
                            4.7372844815254211e-01 -1.8325078487396240e-01
                        </leafValues>
                    </_>
                    <_>
                        <internalNodes>
                            0 -1 47 -6.8181944079697132e-03
                        </internalNodes>
                        <leafValues>
                            4.4213703274726868e-01 -2.3920951783657074e-01
                        </leafValues>
                    </_>
                    <_>
                        <internalNodes>
                            0 -1 101 -5.9635203331708908e-02
                        </internalNodes>
                        <leafValues>
                            5.7411301136016846e-01 -1.1950891464948654e-01
                        </leafValues>
                    </_>
                    <_>
                        <internalNodes>
                            0 -1 198 -1.1184237897396088e-02
                        </internalNodes>
                        <leafValues>
                            4.1448178887367249e-01 -1.7854514718055725e-01
                        </leafValues>
                    </_>
                    <_>
                        <internalNodes>
                            0 -1 179 -1.5608178451657295e-02
                        </internalNodes>
                        <leafValues>
                            5.7412606477737427e-01 -1.7567861080169678e-01
                        </leafValues>
                    </_>
                    <_>
                        <internalNodes>
                            0 -1 574 6.9658868596889079e-05
                        </internalNodes>
                        <leafValues>
                            2.6296484470367432e-01 -3.0737730860710144e-01
                        </leafValues>
                    </_>
                    <_>
                        <internalNodes>
                            0 -1 127 1.5471868682652712e-03
                        </internalNodes>
                        <leafValues>
                            -2.0082278549671173e-01 4.4994717836380005e-01
                        </leafValues>
                    </_>
                    <_>
                        <internalNodes>
                            0 -1 506 6.4946472644805908e-02
                        </internalNodes>
                        <leafValues>
                            -1.0968505591154099e-01 5.7076758146286011e-01
                        </leafValues>
                    </_>
                    <_>
                        <internalNodes>
                            0 -1 361 -5.3796949796378613e-03
                        </internalNodes>
                        <leafValues>
                            5.0407546758651733e-01 -2.0100671052932739e-01
                        </leafValues>
                    </_>
                    <_>
                        <internalNodes>
                            0 -1 584 3.2683619065210223e-04
                        </internalNodes>
                        <leafValues>
                            1.8606497347354889e-01 -4.6449348330497742e-01
                        </leafValues>
                    </_>
                    <_>
                        <internalNodes>
                            0 -1 471 -7.3810369940474629e-04
                        </internalNodes>
                        <leafValues>
                            3.9054402709007263e-01 -2.3863938450813293e-01
                        </leafValues>
                    </_>
                </weakClassifiers>
            </_>
            <!-- stage 5 -->
            <_>
                <maxWeakCount>23</maxWeakCount>
                <stageThreshold>-6.6611230373382568e-01</stageThreshold>
                <weakClassifiers>
                    <_>
                        <internalNodes>
                            0 -1 33 -4.2011034488677979e-01
                        </internalNodes>
                        <leafValues>
                            8.8392859697341919e-01 9.8859317600727081e-02
                        </leafValues>
                    </_>
                    <_>
                        <internalNodes>
                            0 -1 129 -5.3318135440349579e-02
                        </internalNodes>
                        <leafValues>
                            5.3377795219421387e-01 -8.0521993339061737e-02
                        </leafValues>
                    </_>
                    <_>
                        <internalNodes>
                            0 -1 50 8.4629587829113007e-02
                        </internalNodes>
                        <leafValues>
                            -1.0935318470001221e-01 6.2439763545989990e-01
                        </leafValues>
                    </_>
                    <_>
                        <internalNodes>
                            0 -1 5 -9.3596950173377991e-02
                        </internalNodes>
                        <leafValues>
                            4.2329016327857971e-01 -1.6528144478797913e-01
                        </leafValues>
                    </_>
                    <_>
                        <internalNodes>
                            0 -1 335 -2.0328979007899761e-03
                        </internalNodes>
                        <leafValues>
                            2.9693746566772461e-01 -2.2788514196872711e-01
                        </leafValues>
                    </_>
                    <_>
                        <internalNodes>
                            0 -1 508 1.7922300845384598e-02
                        </internalNodes>
                        <leafValues>
                            -1.2981270253658295e-01 4.4199141860008240e-01
                        </leafValues>
                    </_>
                    <_>
                        <internalNodes>
                            0 -1 507 1.9730282947421074e-02
                        </internalNodes>
                        <leafValues>
                            -1.4666469395160675e-01 4.1158297657966614e-01
                        </leafValues>
                    </_>
                    <_>
                        <internalNodes>
                            0 -1 37 -4.1450448334217072e-03
                        </internalNodes>
                        <leafValues>
                            3.5098463296890259e-01 -1.7948675155639648e-01
                        </leafValues>
                    </_>
                    <_>
                        <internalNodes>
                            0 -1 356 -8.0601358786225319e-04
                        </internalNodes>
                        <leafValues>
                            -5.5242693424224854e-01 1.0257314145565033e-01
                        </leafValues>
                    </_>
                    <_>
                        <internalNodes>
                            0 -1 316 -1.7048122826963663e-03
                        </internalNodes>
                        <leafValues>
                            3.1072303652763367e-01 -1.7685255408287048e-01
                        </leafValues>
                    </_>
                    <_>
                        <internalNodes>
                            0 -1 347 1.0328259319067001e-02
                        </internalNodes>
                        <leafValues>
                            -1.1636577546596527e-01 4.5188263058662415e-01
                        </leafValues>
                    </_>
                    <_>
                        <internalNodes>
                            0 -1 18 -1.7238980217371136e-04
                        </internalNodes>
                        <leafValues>
                            -4.3981707096099854e-01 1.2364900857210159e-01
                        </leafValues>
                    </_>
                    <_>
                        <internalNodes>
                            0 -1 505 -1.0216163471341133e-02
                        </internalNodes>
                        <leafValues>
                            3.9220601320266724e-01 -1.3884869217872620e-01
                        </leafValues>
                    </_>
                    <_>
                        <internalNodes>
                            0 -1 234 -5.4518856108188629e-02
                        </internalNodes>
                        <leafValues>
                            4.5341086387634277e-01 -1.3951121270656586e-01
                        </leafValues>
                    </_>
                    <_>
                        <internalNodes>
                            0 -1 543 -1.5597080346196890e-03
                        </internalNodes>
                        <leafValues>
                            -4.7451463341712952e-01 1.0997033864259720e-01
                        </leafValues>
                    </_>
                    <_>
                        <internalNodes>
                            0 -1 273 3.0223178328014910e-04
                        </internalNodes>
                        <leafValues>
                            -1.4117573201656342e-01 3.8909384608268738e-01
                        </leafValues>
                    </_>
                    <_>
                        <internalNodes>
                            0 -1 395 -3.4296855330467224e-02
                        </internalNodes>
                        <leafValues>
                            3.0579343438148499e-01 -1.7482021450996399e-01
                        </leafValues>
                    </_>
                    <_>
                        <internalNodes>
                            0 -1 344 1.7365142703056335e-03
                        </internalNodes>
                        <leafValues>
                            -1.1307291686534882e-01 5.2116382122039795e-01
                        </leafValues>
                    </_>
                    <_>
                        <internalNodes>
                            0 -1 355 2.1620820916723460e-04
                        </internalNodes>
                        <leafValues>
                            1.5257275104522705e-01 -3.8231101632118225e-01
                        </leafValues>
                    </_>
                    <_>
                        <internalNodes>
                            0 -1 186 5.0210533663630486e-04
                        </internalNodes>
                        <leafValues>
                            -1.7164707183837891e-01 2.8579691052436829e-01
                        </leafValues>
                    </_>
                    <_>
                        <internalNodes>
                            0 -1 248 7.6447974424809217e-04
                        </internalNodes>
                        <leafValues>
                            -1.4209154248237610e-01 3.4631770849227905e-01
                        </leafValues>
                    </_>
                    <_>
                        <internalNodes>
                            0 -1 249 -7.8566074371337891e-03
                        </internalNodes>
                        <leafValues>
                            3.7478840351104736e-01 -1.6007338464260101e-01
                        </leafValues>
                    </_>
                    <_>
                        <internalNodes>
                            0 -1 255 1.4683867804706097e-02
                        </internalNodes>
                        <leafValues>
                            -1.5685763955116272e-01 3.5598552227020264e-01
                        </leafValues>
                    </_>
                </weakClassifiers>
            </_>
            <!-- stage 6 -->
            <_>
                <maxWeakCount>28</maxWeakCount>
                <stageThreshold>-7.3808664083480835e-01</stageThreshold>
                <weakClassifiers>
                    <_>
                        <internalNodes>
                            0 -1 408 1.2393948435783386e-01
                        </internalNodes>
                        <leafValues>
                            8.1309400498867035e-02 7.6491862535476685e-01
                        </leafValues>
                    </_>
                    <_>
                        <internalNodes>
                            0 -1 68 -1.2876400351524353e-01
                        </internalNodes>
                        <leafValues>
                            6.1589032411575317e-01 -9.9067024886608124e-02
                        </leafValues>
                    </_>
                    <_>
                        <internalNodes>
                            0 -1 31 4.3402388691902161e-01
                        </internalNodes>
                        <leafValues>
                            -6.5752036869525909e-02 8.1944429874420166e-01
                        </leafValues>
                    </_>
                    <_>
                        <internalNodes>
                            0 -1 531 1.1301490303594619e-04
                        </internalNodes>
                        <leafValues>
                            1.8996134400367737e-01 -3.9443060755729675e-01
                        </leafValues>
                    </_>
                    <_>
                        <internalNodes>
                            0 -1 531 -9.6896212198771536e-05
                        </internalNodes>
                        <leafValues>
                            -4.3492242693901062e-01 1.7146900296211243e-01
                        </leafValues>
                    </_>
                    <_>
                        <internalNodes>
                            0 -1 352 -6.6830017603933811e-03
                        </internalNodes>
                        <leafValues>
                            4.8681551218032837e-01 -1.5957622230052948e-01
                        </leafValues>
                    </_>
                    <_>
                        <internalNodes>
                            0 -1 560 -1.5696622431278229e-03
                        </internalNodes>
                        <leafValues>
                            -5.3164488077163696e-01 1.4132611453533173e-01
                        </leafValues>
                    </_>
                    <_>
                        <internalNodes>
                            0 -1 416 -1.1684852652251720e-03
                        </internalNodes>
                        <leafValues>
                            3.9013132452964783e-01 -1.6738910973072052e-01
                        </leafValues>
                    </_>
                    <_>
                        <internalNodes>
                            0 -1 19 -3.7623692769557238e-03
                        </internalNodes>
                        <leafValues>
                            -4.6083131432533264e-01 1.2950858473777771e-01
                        </leafValues>
                    </_>
                    <_>
                        <internalNodes>
                            0 -1 425 -1.3543021632358432e-03
                        </internalNodes>
                        <leafValues>
                            2.6824235916137695e-01 -2.0620475709438324e-01
                        </leafValues>
                    </_>
                    <_>
                        <internalNodes>
                            0 -1 410 -1.6618086956441402e-03
                        </internalNodes>
                        <leafValues>
                            5.5859619379043579e-01 -6.5323226153850555e-02
                        </leafValues>
                    </_>
                    <_>
                        <internalNodes>
                            0 -1 289 -1.0549017228186131e-02
                        </internalNodes>
                        <leafValues>
                            6.9452089071273804e-01 -7.8890584409236908e-02
                        </leafValues>
                    </_>
                    <_>
                        <internalNodes>
                            0 -1 199 -8.7721921503543854e-02
                        </internalNodes>
                        <leafValues>
                            3.2048404216766357e-01 -1.5724629163742065e-01
                        </leafValues>
                    </_>
                    <_>
                        <internalNodes>
                            0 -1 104 7.8455004841089249e-03
                        </internalNodes>
                        <leafValues>
                            -1.1865737289190292e-01 4.5671340823173523e-01
                        </leafValues>
                    </_>
                    <_>
                        <internalNodes>
                            0 -1 368 6.7487776279449463e-02
                        </internalNodes>
                        <leafValues>
                            -9.8847039043903351e-02 4.7938066720962524e-01
                        </leafValues>
                    </_>
                    <_>
                        <internalNodes>
                            0 -1 597 -8.4030544385313988e-03
                        </internalNodes>
                        <leafValues>
                            -5.0291824340820312e-01 1.2787346541881561e-01
                        </leafValues>
                    </_>
                    <_>
                        <internalNodes>
                            0 -1 296 1.5543571207672358e-03
                        </internalNodes>
                        <leafValues>
                            -1.5924812853336334e-01 3.3942320942878723e-01
                        </leafValues>
                    </_>
                    <_>
                        <internalNodes>
                            0 -1 285 -1.1444598436355591e-02
                        </internalNodes>
                        <leafValues>
                            6.8795651197433472e-01 -7.0539355278015137e-02
                        </leafValues>
                    </_>
                    <_>
                        <internalNodes>
                            0 -1 83 6.4800656400620937e-03
                        </internalNodes>
                        <leafValues>
                            1.2429642677307129e-01 -4.3162766098976135e-01
                        </leafValues>
                    </_>
                    <_>
                        <internalNodes>
                            0 -1 372 -6.1938582803122699e-05
                        </internalNodes>
                        <leafValues>
                            2.3830316960811615e-01 -2.0576688647270203e-01
                        </leafValues>
                    </_>
                    <_>
                        <internalNodes>
                            0 -1 562 -1.1414455366320908e-04
                        </internalNodes>
                        <leafValues>
                            -3.9047053456306458e-01 1.4415779709815979e-01
                        </leafValues>
                    </_>
                    <_>
                        <internalNodes>
                            0 -1 210 2.8872350230813026e-04
                        </internalNodes>
                        <leafValues>
                            -1.6180606186389923e-01 3.1799739599227905e-01
                        </leafValues>
                    </_>
                    <_>
                        <internalNodes>
                            0 -1 71 -8.8738836348056793e-04
                        </internalNodes>
                        <leafValues>
                            -5.2299749851226807e-01 1.0747064650058746e-01
                        </leafValues>
                    </_>
                    <_>
                        <internalNodes>
                            0 -1 440 -1.5672554727643728e-03
                        </internalNodes>
                        <leafValues>
                            5.0125992298126221e-01 -1.0961429029703140e-01
                        </leafValues>
                    </_>
                    <_>
                        <internalNodes>
                            0 -1 193 -8.7214475497603416e-03
                        </internalNodes>
                        <leafValues>
                            4.2583394050598145e-01 -1.0607558488845825e-01
                        </leafValues>
                    </_>
                    <_>
                        <internalNodes>
                            0 -1 527 -2.8225022833794355e-03
                        </internalNodes>
                        <leafValues>
                            2.9644334316253662e-01 -1.5459099411964417e-01
                        </leafValues>
                    </_>
                    <_>
                        <internalNodes>
                            0 -1 427 -4.9260572995990515e-04
                        </internalNodes>
                        <leafValues>
                            3.1218305230140686e-01 -1.5701442956924438e-01
                        </leafValues>
                    </_>
                    <_>
                        <internalNodes>
                            0 -1 562 1.3911729911342263e-04
                        </internalNodes>
                        <leafValues>
                            1.4201517403125763e-01 -4.0518993139266968e-01
                        </leafValues>
                    </_>
                </weakClassifiers>
            </_>
            <!-- stage 7 -->
            <_>
                <maxWeakCount>33</maxWeakCount>
                <stageThreshold>-9.3347030878067017e-01</stageThreshold>
                <weakClassifiers>
                    <_>
                        <internalNodes>
                            0 -1 34 -4.9638074636459351e-01
                        </internalNodes>
                        <leafValues>
                            8.0733942985534668e-01 1.3909775018692017e-01
                        </leafValues>
                    </_>
                    <_>
                        <internalNodes>
                            0 -1 579 -3.3456904930062592e-04
                        </internalNodes>
                        <leafValues>
                            -4.5997354388237000e-01 2.2875380516052246e-01
                        </leafValues>
                    </_>
                    <_>
                        <internalNodes>
                            0 -1 579 1.7014807963278145e-04
                        </internalNodes>
                        <leafValues>
                            2.3572239279747009e-01 -4.2816424369812012e-01
                        </leafValues>
                    </_>
                    <_>
                        <internalNodes>
                            0 -1 559 4.9664871767163277e-05
                        </internalNodes>
                        <leafValues>
                            2.1169283986091614e-01 -3.5492986440658569e-01
                        </leafValues>
                    </_>
                    <_>
                        <internalNodes>
                            0 -1 286 7.4752420186996460e-03
                        </internalNodes>
                        <leafValues>
                            -1.4483766257762909e-01 5.1773291826248169e-01
                        </leafValues>
                    </_>
                    <_>
                        <internalNodes>
                            0 -1 318 1.0612111538648605e-02
                        </internalNodes>
                        <leafValues>
                            -1.1725912988185883e-01 5.5529093742370605e-01
                        </leafValues>
                    </_>
                    <_>
                        <internalNodes>
                            0 -1 386 1.8533244729042053e-03
                        </internalNodes>
                        <leafValues>
                            9.6521094441413879e-02 -5.5743056535720825e-01
                        </leafValues>
                    </_>
                    <_>
                        <internalNodes>
                            0 -1 540 2.4262608960270882e-02
                        </internalNodes>
                        <leafValues>
                            -1.3760010898113251e-01 4.3620455265045166e-01
                        </leafValues>
                    </_>
                    <_>
                        <internalNodes>
                            0 -1 99 6.9946148432791233e-03
                        </internalNodes>
                        <leafValues>
                            -1.4243371784687042e-01 3.9800694584846497e-01
                        </leafValues>
                    </_>
                    <_>
                        <internalNodes>
                            0 -1 7 -1.5024229884147644e-01
                        </internalNodes>
                        <leafValues>
                            -5.0747591257095337e-01 9.1215543448925018e-02
                        </leafValues>
                    </_>
                    <_>
                        <internalNodes>
                            0 -1 349 3.8143079727888107e-03
                        </internalNodes>
                        <leafValues>
                            -1.1757817864418030e-01 4.2355331778526306e-01
                        </leafValues>
                    </_>
                    <_>
                        <internalNodes>
                            0 -1 291 -7.0116311311721802e-02
                        </internalNodes>
                        <leafValues>
                            -8.3074700832366943e-01 6.9682627916336060e-02
                        </leafValues>
                    </_>
                    <_>
                        <internalNodes>
                            0 -1 385 2.4158973246812820e-04
                        </internalNodes>
                        <leafValues>
                            1.1088403314352036e-01 -3.9715310931205750e-01
                        </leafValues>
                    </_>
                    <_>
                        <internalNodes>
                            0 -1 45 6.8083172664046288e-04
                        </internalNodes>
                        <leafValues>
                            1.3079485297203064e-01 -3.8192918896675110e-01
                        </leafValues>
                    </_>
                    <_>
                        <internalNodes>
                            0 -1 194 -8.1192739307880402e-03
                        </internalNodes>
                        <leafValues>
                            4.8616239428520203e-01 -1.0935907810926437e-01
                        </leafValues>
                    </_>
                    <_>
                        <internalNodes>
                            0 -1 44 -3.4552195575088263e-04
                        </internalNodes>
                        <leafValues>
                            -3.5329219698905945e-01 1.6058602929115295e-01
                        </leafValues>
                    </_>
                    <_>
                        <internalNodes>
                            0 -1 333 2.3474479094147682e-03
                        </internalNodes>
                        <leafValues>
                            -1.4666299521923065e-01 3.2936841249465942e-01
                        </leafValues>
                    </_>
                    <_>
                        <internalNodes>
                            0 -1 516 8.9903158368542790e-05
                        </internalNodes>
                        <leafValues>
                            1.7077299952507019e-01 -2.7879998087882996e-01
                        </leafValues>
                    </_>
                    <_>
                        <internalNodes>
                            0 -1 442 6.1965314671397209e-04
                        </internalNodes>
                        <leafValues>
                            9.8537974059581757e-02 -4.6432375907897949e-01
                        </leafValues>
                    </_>
                    <_>
                        <internalNodes>
                            0 -1 109 -2.7412964846007526e-04
                        </internalNodes>
                        <leafValues>
                            -4.1929399967193604e-01 1.1122176051139832e-01
                        </leafValues>
                    </_>
                    <_>
                        <internalNodes>
                            0 -1 313 9.0685682371258736e-03
                        </internalNodes>
                        <leafValues>
                            -9.2796720564365387e-02 6.1298996210098267e-01
                        </leafValues>
                    </_>
                    <_>
                        <internalNodes>
                            0 -1 465 -4.2470908374525607e-04
                        </internalNodes>
                        <leafValues>
                            4.2954501509666443e-01 -9.9459193646907806e-02
                        </leafValues>
                    </_>
                    <_>
                        <internalNodes>
                            0 -1 114 1.9008018716704100e-04
                        </internalNodes>
                        <leafValues>
                            1.5321674942970276e-01 -3.1652003526687622e-01
                        </leafValues>
                    </_>
                    <_>
                        <internalNodes>
                            0 -1 207 7.0788053562864661e-04
                        </internalNodes>
                        <leafValues>
                            -1.5089155733585358e-01 3.6301884055137634e-01
                        </leafValues>
                    </_>
                    <_>
                        <internalNodes>
                            0 -1 435 -2.0123110152781010e-03
                        </internalNodes>
                        <leafValues>
                            -4.6155485510826111e-01 1.2282709777355194e-01
                        </leafValues>
                    </_>
                    <_>
                        <internalNodes>
                            0 -1 304 5.4616120178252459e-04
                        </internalNodes>
                        <leafValues>
                            -1.6768611967563629e-01 3.1131577491760254e-01
                        </leafValues>
                    </_>
                    <_>
                        <internalNodes>
                            0 -1 593 -4.5897661038907245e-05
                        </internalNodes>
                        <leafValues>
                            -2.7388939261436462e-01 2.0364138484001160e-01
                        </leafValues>
                    </_>
                    <_>
                        <internalNodes>
                            0 -1 459 4.8749282723292708e-04
                        </internalNodes>
                        <leafValues>
                            -1.6241316497325897e-01 3.1521454453468323e-01
                        </leafValues>
                    </_>
                    <_>
                        <internalNodes>
                            0 -1 113 -5.6770521041471511e-05
                        </internalNodes>
                        <leafValues>
                            -2.8475540876388550e-01 1.7811726033687592e-01
                        </leafValues>
                    </_>
                    <_>
                        <internalNodes>
                            0 -1 163 6.8159354850649834e-03
                        </internalNodes>
                        <leafValues>
                            -1.2360343337059021e-01 3.7725830078125000e-01
                        </leafValues>
                    </_>
                    <_>
                        <internalNodes>
                            0 -1 122 -6.0637104324996471e-03
                        </internalNodes>
                        <leafValues>
                            4.7414293885231018e-01 -1.0646484047174454e-01
                        </leafValues>
                    </_>
                    <_>
                        <internalNodes>
                            0 -1 208 2.0394158363342285e-01
                        </internalNodes>
                        <leafValues>
                            -1.0386184602975845e-01 5.2644026279449463e-01
                        </leafValues>
                    </_>
                    <_>
                        <internalNodes>
                            0 -1 388 7.6604718342423439e-03
                        </internalNodes>
                        <leafValues>
                            8.8198415935039520e-02 -6.5749955177307129e-01
                        </leafValues>
                    </_>
                </weakClassifiers>
            </_>
            <!-- stage 8 -->
            <_>
                <maxWeakCount>33</maxWeakCount>
                <stageThreshold>-7.0678114891052246e-01</stageThreshold>
                <weakClassifiers>
                    <_>
                        <internalNodes>
                            0 -1 445 1.1933587491512299e-01
                        </internalNodes>
                        <leafValues>
                            8.8362067937850952e-02 7.3076921701431274e-01
                        </leafValues>
                    </_>
                    <_>
                        <internalNodes>
                            0 -1 168 1.1613579466938972e-02
                        </internalNodes>
                        <leafValues>
                            -8.9786991477012634e-02 5.9612405300140381e-01
                        </leafValues>
                    </_>
                    <_>
                        <internalNodes>
                            0 -1 22 -2.8490871191024780e-01
                        </internalNodes>
                        <leafValues>
                            6.4996421337127686e-01 -7.3799043893814087e-02
                        </leafValues>
                    </_>
                    <_>
                        <internalNodes>
                            0 -1 240 3.1837297137826681e-03
                        </internalNodes>
                        <leafValues>
                            -2.1396495401859283e-01 3.8931253552436829e-01
                        </leafValues>
                    </_>
                    <_>
                        <internalNodes>
                            0 -1 573 4.1173261706717312e-05
                        </internalNodes>
                        <leafValues>
                            2.0013089478015900e-01 -3.1604093313217163e-01
                        </leafValues>
                    </_>
                    <_>
                        <internalNodes>
                            0 -1 360 -2.1548992395401001e-01
                        </internalNodes>
                        <leafValues>
                            4.7488915920257568e-01 -1.3017387688159943e-01
                        </leafValues>
                    </_>
                    <_>
                        <internalNodes>
                            0 -1 92 -1.7856374382972717e-02
                        </internalNodes>
                        <leafValues>
                            3.9403033256530762e-01 -1.2775707244873047e-01
                        </leafValues>
                    </_>
                    <_>
                        <internalNodes>
                            0 -1 2 -3.1523262150585651e-03
                        </internalNodes>
                        <leafValues>
                            -5.5665391683578491e-01 8.3002738654613495e-02
                        </leafValues>
                    </_>
                    <_>
                        <internalNodes>
                            0 -1 371 -4.4878007611259818e-04
                        </internalNodes>
                        <leafValues>
                            2.6939034461975098e-01 -1.8897688388824463e-01
                        </leafValues>
                    </_>
                    <_>
                        <internalNodes>
                            0 -1 324 1.3057816540822387e-03
                        </internalNodes>
                        <leafValues>
                            1.1142950505018234e-01 -4.5840856432914734e-01
                        </leafValues>
                    </_>
                    <_>
                        <internalNodes>
                            0 -1 219 -2.7619061991572380e-02
                        </internalNodes>
                        <leafValues>
                            4.9430856108665466e-01 -1.0728771239519119e-01
                        </leafValues>
                    </_>
                    <_>
                        <internalNodes>
                            0 -1 474 -2.0201792940497398e-03
                        </internalNodes>
                        <leafValues>
                            -5.6653779745101929e-01 1.0931210219860077e-01
                        </leafValues>
                    </_>
                    <_>
                        <internalNodes>
                            0 -1 53 5.3346216678619385e-02
                        </internalNodes>
                        <leafValues>
                            -1.2589174509048462e-01 4.2576315999031067e-01
                        </leafValues>
                    </_>
                    <_>
                        <internalNodes>
                            0 -1 418 -7.7164852991700172e-03
                        </internalNodes>
                        <leafValues>
                            4.2327132821083069e-01 -1.0177627205848694e-01
                        </leafValues>
                    </_>
                    <_>
                        <internalNodes>
                            0 -1 143 -1.6252022236585617e-02
                        </internalNodes>
                        <leafValues>
                            -4.2109972238540649e-01 1.1072289198637009e-01
                        </leafValues>
                    </_>
                    <_>
                        <internalNodes>
                            0 -1 58 3.7927180528640747e-04
                        </internalNodes>
                        <leafValues>
                            1.0980325192213058e-01 -4.0039458870887756e-01
                        </leafValues>
                    </_>
                    <_>
                        <internalNodes>
                            0 -1 556 9.1875600628554821e-04
                        </internalNodes>
                        <leafValues>
                            -1.4436987042427063e-01 3.3715292811393738e-01
                        </leafValues>
                    </_>
                    <_>
                        <internalNodes>
                            0 -1 257 -1.1643751058727503e-03
                        </internalNodes>
                        <leafValues>
                            3.4717124700546265e-01 -1.2521041929721832e-01
                        </leafValues>
                    </_>
                    <_>
                        <internalNodes>
                            0 -1 488 -4.4892815640196204e-04
                        </internalNodes>
                        <leafValues>
                            2.8872823715209961e-01 -1.5023578703403473e-01
                        </leafValues>
                    </_>
                    <_>
                        <internalNodes>
                            0 -1 587 -9.9298600107431412e-03
                        </internalNodes>
                        <leafValues>
                            -5.6606417894363403e-01 8.2223407924175262e-02
                        </leafValues>
                    </_>
                    <_>
                        <internalNodes>
                            0 -1 593 8.3448510849848390e-05
                        </internalNodes>
                        <leafValues>
                            1.2901921570301056e-01 -3.1267732381820679e-01
                        </leafValues>
                    </_>
                    <_>
                        <internalNodes>
                            0 -1 478 -8.4265111945569515e-04
                        </internalNodes>
                        <leafValues>
                            2.4198049306869507e-01 -1.9266633689403534e-01
                        </leafValues>
                    </_>
                    <_>
                        <internalNodes>
                            0 -1 89 -9.1273039579391479e-02
                        </internalNodes>
                        <leafValues>
                            3.5013318061828613e-01 -1.2953576445579529e-01
                        </leafValues>
                    </_>
                    <_>
                        <internalNodes>
                            0 -1 464 -3.4492288250476122e-04
                        </internalNodes>
                        <leafValues>
                            3.1363564729690552e-01 -1.4467328786849976e-01
                        </leafValues>
                    </_>
                    <_>
                        <internalNodes>
                            0 -1 93 2.7748942375183105e-02
                        </internalNodes>
                        <leafValues>
                            6.3389420509338379e-02 -7.4660897254943848e-01
                        </leafValues>
                    </_>
                    <_>
                        <internalNodes>
                            0 -1 426 2.2595893824473023e-04
                        </internalNodes>
                        <leafValues>
                            -1.8025241792201996e-01 2.5356370210647583e-01
                        </leafValues>
                    </_>
                    <_>
                        <internalNodes>
                            0 -1 295 2.3499946109950542e-03
                        </internalNodes>
                        <leafValues>
                            -1.3135473430156708e-01 3.3695343136787415e-01
                        </leafValues>
                    </_>
                    <_>
                        <internalNodes>
                            0 -1 176 1.3530834112316370e-03
                        </internalNodes>
                        <leafValues>
                            9.4894222915172577e-02 -5.2714735269546509e-01
                        </leafValues>
                    </_>
                    <_>
                        <internalNodes>
                            0 -1 413 3.4811988007277250e-03
                        </internalNodes>
                        <leafValues>
                            -1.3547337055206299e-01 3.5316625237464905e-01
                        </leafValues>
                    </_>
                    <_>
                        <internalNodes>
                            0 -1 479 4.5723982155323029e-02
                        </internalNodes>
                        <leafValues>
                            7.6753258705139160e-02 -5.8832389116287231e-01
                        </leafValues>
                    </_>
                    <_>
                        <internalNodes>
                            0 -1 242 1.7073047347366810e-03
                        </internalNodes>
                        <leafValues>
                            -1.6504038870334625e-01 2.9027462005615234e-01
                        </leafValues>
                    </_>
                    <_>
                        <internalNodes>
                            0 -1 359 5.6745834648609161e-02
                        </internalNodes>
                        <leafValues>
                            6.3713088631629944e-02 -7.7652192115783691e-01
                        </leafValues>
                    </_>
                    <_>
                        <internalNodes>
                            0 -1 220 -1.1922574602067471e-02
                        </internalNodes>
                        <leafValues>
                            2.6947081089019775e-01 -1.6586638987064362e-01
                        </leafValues>
                    </_>
                </weakClassifiers>
            </_>
            <!-- stage 9 -->
            <_>
                <maxWeakCount>30</maxWeakCount>
                <stageThreshold>-7.8693914413452148e-01</stageThreshold>
                <weakClassifiers>
                    <_>
                        <internalNodes>
                            0 -1 66 -2.1557042002677917e-01
                        </internalNodes>
                        <leafValues>
                            7.5868374109268188e-01 8.9192025363445282e-02
                        </leafValues>
                    </_>
                    <_>
                        <internalNodes>
                            0 -1 146 -5.4765092500019819e-05
                        </internalNodes>
                        <leafValues>
                            -3.3412247896194458e-01 2.4603256583213806e-01
                        </leafValues>
                    </_>
                    <_>
                        <internalNodes>
                            0 -1 450 2.6496212929487228e-02
                        </internalNodes>
                        <leafValues>
                            -1.6863603889942169e-01 3.8444089889526367e-01
                        </leafValues>
                    </_>
                    <_>
                        <internalNodes>
                            0 -1 596 1.3098180352244526e-04
                        </internalNodes>
                        <leafValues>
                            1.5269953012466431e-01 -3.7498709559440613e-01
                        </leafValues>
                    </_>
                    <_>
                        <internalNodes>
                            0 -1 596 -6.3049992604646832e-05
                        </internalNodes>
                        <leafValues>
                            -3.3074405789375305e-01 1.6128408908843994e-01
                        </leafValues>
                    </_>
                    <_>
                        <internalNodes>
                            0 -1 197 7.7984005212783813e-02
                        </internalNodes>
                        <leafValues>
                            -2.4931685626506805e-01 3.3661457896232605e-01
                        </leafValues>
                    </_>
                    <_>
                        <internalNodes>
                            0 -1 591 1.0410340109956451e-05
                        </internalNodes>
                        <leafValues>
                            2.6006996631622314e-01 -1.9955909252166748e-01
                        </leafValues>
                    </_>
                    <_>
                        <internalNodes>
                            0 -1 430 -1.7563059227541089e-03
                        </internalNodes>
                        <leafValues>
                            2.3452229797840118e-01 -2.2514185309410095e-01
                        </leafValues>
                    </_>
                    <_>
                        <internalNodes>
                            0 -1 80 1.3802221044898033e-02
                        </internalNodes>
                        <leafValues>
                            -8.0502703785896301e-02 4.9846866726875305e-01
                        </leafValues>
                    </_>
                    <_>
                        <internalNodes>
                            0 -1 599 -2.5390917435288429e-03
                        </internalNodes>
                        <leafValues>
                            -5.0397586822509766e-01 8.4432892501354218e-02
                        </leafValues>
                    </_>
                    <_>
                        <internalNodes>
                            0 -1 603 -2.1848042961210012e-03
                        </internalNodes>
                        <leafValues>
                            -4.6013358235359192e-01 8.5636407136917114e-02
                        </leafValues>
                    </_>
                    <_>
                        <internalNodes>
                            0 -1 381 8.4903798997402191e-03
                        </internalNodes>
                        <leafValues>
                            -8.3939030766487122e-02 6.7726439237594604e-01
                        </leafValues>
                    </_>
                    <_>
                        <internalNodes>
                            0 -1 312 -4.4994155177846551e-04
                        </internalNodes>
                        <leafValues>
                            3.5774371027946472e-01 -1.1990313231945038e-01
                        </leafValues>
                    </_>
                    <_>
                        <internalNodes>
                            0 -1 21 2.6424046605825424e-02
                        </internalNodes>
                        <leafValues>
                            6.2872275710105896e-02 -7.5019025802612305e-01
                        </leafValues>
                    </_>
                    <_>
                        <internalNodes>
                            0 -1 177 1.2543193064630032e-02
                        </internalNodes>
                        <leafValues>
                            -1.5041485428810120e-01 3.3248341083526611e-01
                        </leafValues>
                    </_>
                    <_>
                        <internalNodes>
                            0 -1 454 -7.3650493286550045e-03
                        </internalNodes>
                        <leafValues>
                            3.4554231166839600e-01 -1.3438160717487335e-01
                        </leafValues>
                    </_>
                    <_>
                        <internalNodes>
                            0 -1 179 1.2770602479577065e-02
                        </internalNodes>
                        <leafValues>
                            -1.1904653906822205e-01 3.6410629749298096e-01
                        </leafValues>
                    </_>
                    <_>
                        <internalNodes>
                            0 -1 35 -2.5406730128452182e-04
                        </internalNodes>
                        <leafValues>
                            -4.1645041108131409e-01 1.1585660278797150e-01
                        </leafValues>
                    </_>
                    <_>
                        <internalNodes>
                            0 -1 326 1.8239416182041168e-02
                        </internalNodes>
                        <leafValues>
                            -1.1210498958826065e-01 3.9795202016830444e-01
                        </leafValues>
                    </_>
                    <_>
                        <internalNodes>
                            0 -1 282 -1.5998214948922396e-03
                        </internalNodes>
                        <leafValues>
                            3.5998201370239258e-01 -1.1471428722143173e-01
                        </leafValues>
                    </_>
                    <_>
                        <internalNodes>
                            0 -1 202 4.2573087848722935e-03
                        </internalNodes>
                        <leafValues>
                            -7.2575747966766357e-02 5.8800572156906128e-01
                        </leafValues>
                    </_>
                    <_>
                        <internalNodes>
                            0 -1 366 1.5816990344319493e-04
                        </internalNodes>
                        <leafValues>
                            -1.5726923942565918e-01 2.8564637899398804e-01
                        </leafValues>
                    </_>
                    <_>
                        <internalNodes>
                            0 -1 549 1.5589491464197636e-02
                        </internalNodes>
                        <leafValues>
                            6.0402892529964447e-02 -7.9581791162490845e-01
                        </leafValues>
                    </_>
                    <_>
                        <internalNodes>
                            0 -1 604 -1.0935192694887519e-03
                        </internalNodes>
                        <leafValues>
                            -5.2622288465499878e-01 7.2603657841682434e-02
                        </leafValues>
                    </_>
                    <_>
                        <internalNodes>
                            0 -1 41 7.5528596062213182e-04
                        </internalNodes>
                        <leafValues>
                            1.0782926529645920e-01 -4.2803165316581726e-01
                        </leafValues>
                    </_>
                    <_>
                        <internalNodes>
                            0 -1 229 2.8336443006992340e-02
                        </internalNodes>
                        <leafValues>
                            4.8366367816925049e-02 -7.4337804317474365e-01
                        </leafValues>
                    </_>
                    <_>
                        <internalNodes>
                            0 -1 423 9.4739440828561783e-03
                        </internalNodes>
                        <leafValues>
                            3.7226863205432892e-02 -8.2051491737365723e-01
                        </leafValues>
                    </_>
                    <_>
                        <internalNodes>
                            0 -1 190 -5.6863804347813129e-03
                        </internalNodes>
                        <leafValues>
                            5.1984983682632446e-01 -8.5957020521163940e-02
                        </leafValues>
                    </_>
                    <_>
                        <internalNodes>
                            0 -1 178 -3.5528987646102905e-03
                        </internalNodes>
                        <leafValues>
                            5.9386950731277466e-01 -6.6007822751998901e-02
                        </leafValues>
                    </_>
                    <_>
                        <internalNodes>
                            0 -1 51 -1.0654984042048454e-02
                        </internalNodes>
                        <leafValues>
                            -6.1136001348495483e-01 7.2846263647079468e-02
                        </leafValues>
                    </_>
                </weakClassifiers>
            </_>
            <!-- stage 10 -->
            <_>
                <maxWeakCount>33</maxWeakCount>
                <stageThreshold>-6.5511441230773926e-01</stageThreshold>
                <weakClassifiers>
                    <_>
                        <internalNodes>
                            0 -1 48 -1.0680343955755234e-01
                        </internalNodes>
                        <leafValues>
                            6.9640064239501953e-01 6.3879206776618958e-02
                        </leafValues>
                    </_>
                    <_>
                        <internalNodes>
                            0 -1 481 5.0371762365102768e-02
                        </internalNodes>
                        <leafValues>
                            -7.7402159571647644e-02 5.9356003999710083e-01
                        </leafValues>
                    </_>
                    <_>
                        <internalNodes>
                            0 -1 523 -1.0018579196184874e-03
                        </internalNodes>
                        <leafValues>
                            3.4603899717330933e-01 -1.7048653960227966e-01
                        </leafValues>
                    </_>
                    <_>
                        <internalNodes>
                            0 -1 593 -8.7516709754709154e-05
                        </internalNodes>
                        <leafValues>
                            -3.9480629563331604e-01 1.4647498726844788e-01
                        </leafValues>
                    </_>
                    <_>
                        <internalNodes>
                            0 -1 77 -4.6216450631618500e-02
                        </internalNodes>
                        <leafValues>
                            7.5122612714767456e-01 -7.2368592023849487e-02
                        </leafValues>
                    </_>
                    <_>
                        <internalNodes>
                            0 -1 11 9.5856919884681702e-02
                        </internalNodes>
                        <leafValues>
                            -1.2906120717525482e-01 5.3201156854629517e-01
                        </leafValues>
                    </_>
                    <_>
                        <internalNodes>
                            0 -1 42 -4.1589893400669098e-02
                        </internalNodes>
                        <leafValues>
                            3.6589589715003967e-01 -1.2674468755722046e-01
                        </leafValues>
                    </_>
                    <_>
                        <internalNodes>
                            0 -1 300 3.0793758924119174e-04
                        </internalNodes>
                        <leafValues>
                            -1.6891637444496155e-01 2.6622232794761658e-01
                        </leafValues>
                    </_>
                    <_>
                        <internalNodes>
                            0 -1 582 4.5186951756477356e-03
                        </internalNodes>
                        <leafValues>
                            9.1863930225372314e-02 -5.4354441165924072e-01
                        </leafValues>
                    </_>
                    <_>
                        <internalNodes>
                            0 -1 88 1.1926220729947090e-02
                        </internalNodes>
                        <leafValues>
                            9.1277584433555603e-02 -4.4611644744873047e-01
                        </leafValues>
                    </_>
                    <_>
                        <internalNodes>
                            0 -1 132 4.2207911610603333e-04
                        </internalNodes>
                        <leafValues>
                            -2.0474252104759216e-01 2.5025826692581177e-01
                        </leafValues>
                    </_>
                    <_>
                        <internalNodes>
                            0 -1 431 1.1759814515244216e-04
                        </internalNodes>
                        <leafValues>
                            -1.5211264789104462e-01 2.9739198088645935e-01
                        </leafValues>
                    </_>
                    <_>
                        <internalNodes>
                            0 -1 469 4.4837356545031071e-03
                        </internalNodes>
                        <leafValues>
                            -7.6005302369594574e-02 5.6525057554244995e-01
                        </leafValues>
                    </_>
                    <_>
                        <internalNodes>
                            0 -1 470 -7.6867628376930952e-04
                        </internalNodes>
                        <leafValues>
                            3.5779234766960144e-01 -1.2269788235425949e-01
                        </leafValues>
                    </_>
                    <_>
                        <internalNodes>
                            0 -1 302 -8.9356213808059692e-02
                        </internalNodes>
                        <leafValues>
                            5.9444665908813477e-01 -6.3800193369388580e-02
                        </leafValues>
                    </_>
                    <_>
                        <internalNodes>
                            0 -1 451 3.0729146674275398e-03
                        </internalNodes>
                        <leafValues>
                            -1.4376412332057953e-01 3.0721342563629150e-01
                        </leafValues>
                    </_>
                    <_>
                        <internalNodes>
                            0 -1 492 1.4618784189224243e-04
                        </internalNodes>
                        <leafValues>
                            1.2862205505371094e-01 -3.7609028816223145e-01
                        </leafValues>
                    </_>
                    <_>
                        <internalNodes>
                            0 -1 496 -7.4424725025892258e-03
                        </internalNodes>
                        <leafValues>
                            -8.0589944124221802e-01 4.2018435895442963e-02
                        </leafValues>
                    </_>
                    <_>
                        <internalNodes>
                            0 -1 499 1.2342239497229457e-03
                        </internalNodes>
                        <leafValues>
                            -1.0976256430149078e-01 4.0838867425918579e-01
                        </leafValues>
                    </_>
                    <_>
                        <internalNodes>
                            0 -1 217 -1.0673396755009890e-03
                        </internalNodes>
                        <leafValues>
                            2.9438096284866333e-01 -1.4520189166069031e-01
                        </leafValues>
                    </_>
                    <_>
                        <internalNodes>
                            0 -1 69 4.8690989613533020e-02
                        </internalNodes>
                        <leafValues>
                            1.1090181022882462e-01 -4.1400283575057983e-01
                        </leafValues>
                    </_>
                    <_>
                        <internalNodes>
                            0 -1 482 -1.1159500572830439e-03
                        </internalNodes>
                        <leafValues>
                            3.6592358350753784e-01 -1.3142861425876617e-01
                        </leafValues>
                    </_>
                    <_>
                        <internalNodes>
                            0 -1 70 -7.8925467096269131e-04
                        </internalNodes>
                        <leafValues>
                            -4.2532700300216675e-01 1.1570169776678085e-01
                        </leafValues>
                    </_>
                    <_>
                        <internalNodes>
                            0 -1 441 4.5364387333393097e-03
                        </internalNodes>
                        <leafValues>
                            -1.1523865163326263e-01 4.2115908861160278e-01
                        </leafValues>
                    </_>
                    <_>
                        <internalNodes>
                            0 -1 399 3.6985357291996479e-04
                        </internalNodes>
                        <leafValues>
                            -2.0553970336914062e-01 2.2596605122089386e-01
                        </leafValues>
                    </_>
                    <_>
                        <internalNodes>
                            0 -1 389 1.6666117589920759e-03
                        </internalNodes>
                        <leafValues>
                            -1.1837654560804367e-01 3.6480951309204102e-01
                        </leafValues>
                    </_>
                    <_>
                        <internalNodes>
                            0 -1 245 -1.3020067708566785e-03
                        </internalNodes>
                        <leafValues>
                            2.3623494803905487e-01 -1.7042566835880280e-01
                        </leafValues>
                    </_>
                    <_>
                        <internalNodes>
                            0 -1 299 9.9574148654937744e-02
                        </internalNodes>
                        <leafValues>
                            -1.0590840131044388e-01 4.3602341413497925e-01
                        </leafValues>
                    </_>
                    <_>
                        <internalNodes>
                            0 -1 495 9.0689864009618759e-03
                        </internalNodes>
                        <leafValues>
                            9.5937065780162811e-02 -4.8591896891593933e-01
                        </leafValues>
                    </_>
                    <_>
                        <internalNodes>
                            0 -1 517 3.0275224708020687e-03
                        </internalNodes>
                        <leafValues>
                            7.9710029065608978e-02 -4.5667716860771179e-01
                        </leafValues>
                    </_>
                    <_>
                        <internalNodes>
                            0 -1 536 1.4370810240507126e-03
                        </internalNodes>
                        <leafValues>
                            -8.0241143703460693e-02 5.0827294588088989e-01
                        </leafValues>
                    </_>
                    <_>
                        <internalNodes>
                            0 -1 444 -1.1080002877861261e-03
                        </internalNodes>
                        <leafValues>
                            -3.5052087903022766e-01 1.2272587418556213e-01
                        </leafValues>
                    </_>
                    <_>
                        <internalNodes>
                            0 -1 267 -1.7400659271515906e-04
                        </internalNodes>
                        <leafValues>
                            2.8813487291336060e-01 -1.4375431835651398e-01
                        </leafValues>
                    </_>
                </weakClassifiers>
            </_>
            <!-- stage 11 -->
            <_>
                <maxWeakCount>40</maxWeakCount>
                <stageThreshold>-7.9942131042480469e-01</stageThreshold>
                <weakClassifiers>
                    <_>
                        <internalNodes>
                            0 -1 26 -6.3899397850036621e-01
                        </internalNodes>
                        <leafValues>
                            8.3586627244949341e-01 1.9214347004890442e-01
                        </leafValues>
                    </_>
                    <_>
                        <internalNodes>
                            0 -1 171 -3.6097793781664222e-05
                        </internalNodes>
                        <leafValues>
                            -3.1313928961753845e-01 2.1828968822956085e-01
                        </leafValues>
                    </_>
                    <_>
                        <internalNodes>
                            0 -1 354 1.5339393168687820e-02
                        </internalNodes>
                        <leafValues>
                            -8.7556414306163788e-02 6.3928562402725220e-01
                        </leafValues>
                    </_>
                    <_>
                        <internalNodes>
                            0 -1 13 1.7853356897830963e-02
                        </internalNodes>
                        <leafValues>
                            -1.6349221765995026e-01 4.4630226492881775e-01
                        </leafValues>
                    </_>
                    <_>
                        <internalNodes>
                            0 -1 446 -1.7196068167686462e-01
                        </internalNodes>
                        <leafValues>
                            6.2596899271011353e-01 -5.3176276385784149e-02
                        </leafValues>
                    </_>
                    <_>
                        <internalNodes>
                            0 -1 150 2.1718721836805344e-02
                        </internalNodes>
                        <leafValues>
                            -1.1107248067855835e-01 4.3967074155807495e-01
                        </leafValues>
                    </_>
                    <_>
                        <internalNodes>
                            0 -1 232 -1.0714281350374222e-02
                        </internalNodes>
                        <leafValues>
                            3.7402263283729553e-01 -1.2602165341377258e-01
                        </leafValues>
                    </_>
                    <_>
                        <internalNodes>
                            0 -1 476 -4.5783986570313573e-04
                        </internalNodes>
                        <leafValues>
                            -3.4513133764266968e-01 1.3209031522274017e-01
                        </leafValues>
                    </_>
                    <_>
                        <internalNodes>
                            0 -1 128 -2.4929773062467575e-02
                        </internalNodes>
                        <leafValues>
                            -9.2384302616119385e-01 4.4056147336959839e-02
                        </leafValues>
                    </_>
                    <_>
                        <internalNodes>
                            0 -1 500 6.5183965489268303e-04
                        </internalNodes>
                        <leafValues>
                            -1.6785475611686707e-01 2.6755273342132568e-01
                        </leafValues>
                    </_>
                    <_>
                        <internalNodes>
                            0 -1 542 -6.2118773348629475e-04
                        </internalNodes>
                        <leafValues>
                            -5.5433386564254761e-01 8.2985058426856995e-02
                        </leafValues>
                    </_>
                    <_>
                        <internalNodes>
                            0 -1 404 4.9311742186546326e-03
                        </internalNodes>
                        <leafValues>
                            4.7859750688076019e-02 -7.1602350473403931e-01
                        </leafValues>
                    </_>
                    <_>
                        <internalNodes>
                            0 -1 457 -3.9133679820224643e-04
                        </internalNodes>
                        <leafValues>
                            2.2356438636779785e-01 -1.7669610679149628e-01
                        </leafValues>
                    </_>
                    <_>
                        <internalNodes>
                            0 -1 595 -1.3579294318333268e-04
                        </internalNodes>
                        <leafValues>
                            -3.7733495235443115e-01 1.2638442218303680e-01
                        </leafValues>
                    </_>
                    <_>
                        <internalNodes>
                            0 -1 211 -5.4040772374719381e-04
                        </internalNodes>
                        <leafValues>
                            2.8116476535797119e-01 -1.4558044075965881e-01
                        </leafValues>
                    </_>
                    <_>
                        <internalNodes>
                            0 -1 525 8.9132823050022125e-03
                        </internalNodes>
                        <leafValues>
                            -1.2656234204769135e-01 3.0817329883575439e-01
                        </leafValues>
                    </_>
                    <_>
                        <internalNodes>
                            0 -1 543 1.8112243851646781e-03
                        </internalNodes>
                        <leafValues>
                            9.4233877956867218e-02 -4.3938544392585754e-01
                        </leafValues>
                    </_>
                    <_>
                        <internalNodes>
                            0 -1 107 -7.1105859242379665e-03
                        </internalNodes>
                        <leafValues>
                            3.7935450673103333e-01 -1.0690446197986603e-01
                        </leafValues>
                    </_>
                    <_>
                        <internalNodes>
                            0 -1 463 1.4124836772680283e-02
                        </internalNodes>
                        <leafValues>
                            5.7038914412260056e-02 -7.5122123956680298e-01
                        </leafValues>
                    </_>
                    <_>
                        <internalNodes>
                            0 -1 317 1.5140534378588200e-03
                        </internalNodes>
                        <leafValues>
                            -1.4477758109569550e-01 2.9907974600791931e-01
                        </leafValues>
                    </_>
                    <_>
                        <internalNodes>
                            0 -1 443 -1.5176217071712017e-02
                        </internalNodes>
                        <leafValues>
                            -8.9937448501586914e-01 5.0909616053104401e-02
                        </leafValues>
                    </_>
                    <_>
                        <internalNodes>
                            0 -1 72 -7.3337956564500928e-05
                        </internalNodes>
                        <leafValues>
                            -3.1267112493515015e-01 1.2395450472831726e-01
                        </leafValues>
                    </_>
                    <_>
                        <internalNodes>
                            0 -1 265 2.9525812715291977e-03
                        </internalNodes>
                        <leafValues>
                            -1.2319584935903549e-01 3.2880124449729919e-01
                        </leafValues>
                    </_>
                    <_>
                        <internalNodes>
                            0 -1 332 -3.0308463610708714e-03
                        </internalNodes>
                        <leafValues>
                            4.1715037822723389e-01 -9.3928501009941101e-02
                        </leafValues>
